{"learner":{"attributes":{"best_iteration":"364","best_score":"0.5595510024726478","scikit_learn":"{\"_estimator_type\": \"classifier\"}"},"feature_names":["vital_220045_mean","vital_220045_min","vital_220045_max","vital_220045_std","vital_220045_missing","vital_220179_mean","vital_220179_min","vital_220179_max","vital_220179_std","vital_220179_missing","vital_220210_mean","vital_220210_min","vital_220210_max","vital_220210_std","vital_220210_missing","vital_220277_mean","vital_220277_min","vital_220277_max","vital_220277_std","vital_220277_missing","vital_223761_mean","vital_223761_min","vital_223761_max","vital_223761_std","vital_223761_missing","vital_223900_mean","vital_223900_min","vital_223900_max","vital_223900_std","vital_223900_missing","lab_50912_last","lab_50912_missing","lab_50813_last","lab_50813_missing","lab_51301_last","lab_51301_missing","lab_50885_last","lab_50885_missing","icu_hours_elapsed","time_of_day"],"feature_types":["float","float","float","float","int","float","float","float","float","int","float","float","float","float","int","float","float","float","float","int","float","float","float","float","int","float","float","float","float","int","float","int","float","int","float","int","float","int","float","int"],"gradient_booster":{"model":{"cats":{"enc":[],"feature_segments":[],"sorted_idx":[]},"gbtree_model_param":{"num_parallel_tree":"1","num_trees":"385"},"iteration_indptr":[0,1,2,3,4,5,6,7,8,9,10,11,12,13,14,15,16,17,18,19,20,21,22,23,24,25,26,27,28,29,30,31,32,33,34,35,36,37,38,39,40,41,42,43,44,45,46,47,48,49,50,51,52,53,54,55,56,57,58,59,60,61,62,63,64,65,66,67,68,69,70,71,72,73,74,75,76,77,78,79,80,81,82,83,84,85,86,87,88,89,90,91,92,93,94,95,96,97,98,99,100,101,102,103,104,105,106,107,108,109,110,111,112,113,114,115,116,117,118,119,120,121,122,123,124,125,126,127,128,129,130,131,132,133,134,135,136,137,138,139,140,141,142,143,144,145,146,147,148,149,150,151,152,153,154,155,156,157,158,159,160,161,162,163,164,165,166,167,168,169,170,171,172,173,174,175,176,177,178,179,180,181,182,183,184,185,186,187,188,189,190,191,192,193,194,195,196,197,198,199,200,201,202,203,204,205,206,207,208,209,210,211,212,213,214,215,216,217,218,219,220,221,222,223,224,225,226,227,228,229,230,231,232,233,234,235,236,237,238,239,240,241,242,243,244,245,246,247,248,249,250,251,252,253,254,255,256,257,258,259,260,261,262,263,264,265,266,267,268,269,270,271,272,273,274,275,276,277,278,279,280,281,282,283,284,285,286,287,288,289,290,291,292,293,294,295,296,297,298,299,300,301,302,303,304,305,306,307,308,309,310,311,312,313,314,315,316,317,318,319,320,321,322,323,324,325,326,327,328,329,330,331,332,333,334,335,336,337,338,339,340,341,342,343,344,345,346,347,348,349,350,351,352,353,354,355,356,357,358,359,360,361,362,363,364,365,366,367,368,369,370,371,372,373,374,375,376,377,378,379,380,381,382,383,384,385],"tree_info":[0,0,0,0,0,0,0,0,0,0,0,0,0,0,0,0,0,0,0,0,0,0,0,0,0,0,0,0,0,0,0,0,0,0,0,0,0,0,0,0,0,0,0,0,0,0,0,0,0,0,0,0,0,0,0,0,0,0,0,0,0,0,0,0,0,0,0,0,0,0,0,0,0,0,0,0,0,0,0,0,0,0,0,0,0,0,0,0,0,0,0,0,0,0,0,0,0,0,0,0,0,0,0,0,0,0,0,0,0,0,0,0,0,0,0,0,0,0,0,0,0,0,0,0,0,0,0,0,0,0,0,0,0,0,0,0,0,0,0,0,0,0,0,0,0,0,0,0,0,0,0,0,0,0,0,0,0,0,0,0,0,0,0,0,0,0,0,0,0,0,0,0,0,0,0,0,0,0,0,0,0,0,0,0,0,0,0,0,0,0,0,0,0,0,0,0,0,0,0,0,0,0,0,0,0,0,0,0,0,0,0,0,0,0,0,0,0,0,0,0,0,0,0,0,0,0,0,0,0,0,0,0,0,0,0,0,0,0,0,0,0,0,0,0,0,0,0,0,0,0,0,0,0,0,0,0,0,0,0,0,0,0,0,0,0,0,0,0,0,0,0,0,0,0,0,0,0,0,0,0,0,0,0,0,0,0,0,0,0,0,0,0,0,0,0,0,0,0,0,0,0,0,0,0,0,0,0,0,0,0,0,0,0,0,0,0,0,0,0,0,0,0,0,0,0,0,0,0,0,0,0,0,0,0,0,0,0,0,0,0,0,0,0,0,0,0,0,0,0,0,0,0,0,0,0,0,0,0,0,0,0,0,0,0,0,0,0,0,0,0,0,0,0,0,0,0,0,0,0,0,0,0,0,0,0],"trees":[{"base_weights":[-2.238518E-3,3.5240138E-1,-6.423891E-1,-8.1533045E-2,6.5081435E-1,-9.6247154E-1,-1.1224101E-1,-3.484683E-1,4.7817284E-1,8.4204304E-1,1.5983614E-1,-4.620446E-1,-1.1617529E0,-3.1853524E-1,8.125979E-1,-4.8873374E-1,4.4843024E-1,6.9343597E-1,-1.3714814E-1,5.277616E-1,1.0434932E0,-3.9443765E-2,6.289417E-1,4.1560388E-1,-5.8415824E-1,-1.2899915E0,-4.0304327E-1,4.682068E-2,-5.9900594E-1,5.9761155E-1,1.2365844E0,-8.778025E-1,-2.8794345E-1,2.6682925E-1,1.0465521E0,5.353865E-1,1.1868914E0,5.754291E-1,-3.5004345E-1,1.0249131E0,3.8826275E-1,8.951122E-1,1.2953656E0,-1.5360542E-1,6.031394E-1,5.1729095E-1,1.145738E0,2.6213148E-1,1.2201138E0,-6.952602E-1,3.127562E-1,-1.3965701E0,-7.0538086E-1,2.915157E-1,-6.561422E-1,7.2023916E-1,-1.3336797E-1,-7.7018803E-1,1.7746964E-2,3.29662E-1,8.109869E-1,1.3281633E0,-2.0858085E-1,-1.3179268E-2,-6.0352612E-2,3.622702E-4,-3.2990035E-2,1.9981382E-2,-3.0156434E-2,5.9913255E-2,2.2493651E-2,1.3409686E-2,4.049134E-2,6.6223286E-2,3.8823344E-2,6.729451E-3,3.9374754E-2,-2.990517E-2,-5.6755645E-3,6.589106E-2,4.3586608E-2,1.2801512E-2,3.9127555E-2,3.8854342E-2,6.243623E-2,6.0884632E-2,8.1840314E-2,-1.2641655E-2,2.5645271E-2,2.0375531E-2,4.5606777E-2,1.8689757E-2,4.9976133E-2,5.1984455E-2,7.71712E-2,1.7149918E-2,-3.22167E-2,6.4511076E-2,1.0027678E-2,-4.0007863E-2,-1.125784E-2,-6.268769E-3,2.7677199E-2,-7.300817E-2,-3.931789E-2,-4.5975063E-2,-2.481598E-2,-7.383733E-2,1.8598815E-2,-4.032615E-2,3.363909E-2,4.0159773E-2,-1.6294163E-2,-1.4382963E-2,1.3377624E-2,-5.352838E-2,-2.5813526E-2,2.6050521E-2,-5.148576E-3,3.306394E-2,-2.1872798E-3,-5.483323E-2,4.1608527E-2,5.8918025E-2,8.344119E-2,-6.8954214E-2,8.092836E-2],"categories":[],"categories_nodes":[],"categories_segments":[],"categories_sizes":[],"default_left":[1,0,1,1,1,0,0,1,1,1,1,0,0,0,0,0,1,1,0,0,0,0,1,1,0,1,1,0,1,0,0,0,0,1,0,0,0,0,0,0,1,1,0,1,1,0,0,0,0,1,1,1,0,1,0,0,1,0,0,1,1,0,0,0,0,0,0,0,0,0,0,0,0,0,0,0,0,0,0,0,0,0,0,0,0,0,0,0,0,0,0,0,0,0,0,0,0,0,0,0,0,0,0,0,0,0,0,0,0,0,0,0,0,0,0,0,0,0,0,0,0,0,0,0,0,0,0],"id":0,"left_children":[1,3,5,7,9,11,13,15,17,19,21,23,25,27,29,31,33,35,37,39,41,43,45,47,49,51,53,55,57,59,61,63,65,67,69,71,73,75,77,79,81,83,85,87,89,91,93,95,97,99,101,103,105,107,109,111,113,115,117,119,121,123,125,-1,-1,-1,-1,-1,-1,-1,-1,-1,-1,-1,-1,-1,-1,-1,-1,-1,-1,-1,-1,-1,-1,-1,-1,-1,-1,-1,-1,-1,-1,-1,-1,-1,-1,-1,-1,-1,-1,-1,-1,-1,-1,-1,-1,-1,-1,-1,-1,-1,-1,-1,-1,-1,-1,-1,-1,-1,-1,-1,-1,-1,-1,-1,-1],"loss_changes":[4.255867E4,1.5621118E4,1.134042E4,7.344342E3,6.7109355E3,4.155133E3,4.8006006E3,3.7205488E3,2.1026582E3,3.2563672E3,1.8731821E3,1.2723638E3,2.8991016E3,2.108122E3,4.1755518E2,2.2107607E3,5.4086884E2,9.165205E2,6.244389E2,1.3932964E3,1.1703867E3,1.031814E3,3.4412402E2,1.7876053E2,1.0386011E3,1.5873867E3,7.5791986E2,1.0843114E3,1.2287515E3,1.7393811E2,2.0449658E2,1.9479204E3,2.0493323E3,4.4191428E2,1.0446863E2,6.5305396E2,1.6000708E2,8.8421906E1,1.8586337E2,1.9639014E2,8.1806226E2,8.2244824E2,3.0614844E2,7.900108E2,1.27894165E2,3.397118E2,4.312378E1,8.960013E1,1.6330444E1,4.5705518E2,1.2130748E2,8.3553125E2,1.7559717E2,1.6443614E2,6.319458E2,1.6395856E2,4.361725E2,6.942705E2,1.5372552E2,1.6749683E2,6.943054E1,7.209326E1,2.0074423E2,0E0,0E0,0E0,0E0,0E0,0E0,0E0,0E0,0E0,0E0,0E0,0E0,0E0,0E0,0E0,0E0,0E0,0E0,0E0,0E0,0E0,0E0,0E0,0E0,0E0,0E0,0E0,0E0,0E0,0E0,0E0,0E0,0E0,0E0,0E0,0E0,0E0,0E0,0E0,0E0,0E0,0E0,0E0,0E0,0E0,0E0,0E0,0E0,0E0,0E0,0E0,0E0,0E0,0E0,0E0,0E0,0E0,0E0,0E0,0E0,0E0,0E0,0E0,0E0],"parents":[2147483647,0,0,1,1,2,2,3,3,4,4,5,5,6,6,7,7,8,8,9,9,10,10,11,11,12,12,13,13,14,14,15,15,16,16,17,17,18,18,19,19,20,20,21,21,22,22,23,23,24,24,25,25,26,26,27,27,28,28,29,29,30,30,31,31,32,32,33,33,34,34,35,35,36,36,37,37,38,38,39,39,40,40,41,41,42,42,43,43,44,44,45,45,46,46,47,47,48,48,49,49,50,50,51,51,52,52,53,53,54,54,55,55,56,56,57,57,58,58,59,59,60,60,61,61,62,62],"right_children":[2,4,6,8,10,12,14,16,18,20,22,24,26,28,30,32,34,36,38,40,42,44,46,48,50,52,54,56,58,60,62,64,66,68,70,72,74,76,78,80,82,84,86,88,90,92,94,96,98,100,102,104,106,108,110,112,114,116,118,120,122,124,126,-1,-1,-1,-1,-1,-1,-1,-1,-1,-1,-1,-1,-1,-1,-1,-1,-1,-1,-1,-1,-1,-1,-1,-1,-1,-1,-1,-1,-1,-1,-1,-1,-1,-1,-1,-1,-1,-1,-1,-1,-1,-1,-1,-1,-1,-1,-1,-1,-1,-1,-1,-1,-1,-1,-1,-1,-1,-1,-1,-1,-1,-1,-1,-1],"split_conditions":[5E0,8.4E1,9.0166664E1,2.1833334E1,1.17E2,1.11E2,1.86E2,1.6E0,1.18166664E2,7.7E1,9E1,1E0,1.62E2,1.165E2,4.74E2,2.4E1,1.67E1,1.7E0,1E0,1E0,3.18E2,5.22E2,1E0,1.65E1,2.1E2,2.2166666E1,1.114E2,1E0,2.4666666E1,9.3E1,1.404E3,1.17E2,1.1666666E0,1.26333336E2,1.0615E2,2.5E1,1.0615E2,1.3E0,1.7511901E0,9.825E1,2.3666666E1,1.3E0,8.16E2,1.2E0,8.8333336E1,5.4E2,2.4E1,1.0145E2,1.9844395E1,2.2E1,7.4166664E1,1.4E0,2.4142857E1,5.85E1,6.12E2,1.0615E2,2.3666666E1,3.6E1,1E0,1.26E2,4.082483E-1,8.82E2,1.5E1,-1.3179268E-2,-6.0352612E-2,3.622702E-4,-3.2990035E-2,1.9981382E-2,-3.0156434E-2,5.9913255E-2,2.2493651E-2,1.3409686E-2,4.049134E-2,6.6223286E-2,3.8823344E-2,6.729451E-3,3.9374754E-2,-2.990517E-2,-5.6755645E-3,6.589106E-2,4.3586608E-2,1.2801512E-2,3.9127555E-2,3.8854342E-2,6.243623E-2,6.0884632E-2,8.1840314E-2,-1.2641655E-2,2.5645271E-2,2.0375531E-2,4.5606777E-2,1.8689757E-2,4.9976133E-2,5.1984455E-2,7.71712E-2,1.7149918E-2,-3.22167E-2,6.4511076E-2,1.0027678E-2,-4.0007863E-2,-1.125784E-2,-6.268769E-3,2.7677199E-2,-7.300817E-2,-3.931789E-2,-4.5975063E-2,-2.481598E-2,-7.383733E-2,1.8598815E-2,-4.032615E-2,3.363909E-2,4.0159773E-2,-1.6294163E-2,-1.4382963E-2,1.3377624E-2,-5.352838E-2,-2.5813526E-2,2.6050521E-2,-5.148576E-3,3.306394E-2,-2.1872798E-3,-5.483323E-2,4.1608527E-2,5.8918025E-2,8.344119E-2,-6.8954214E-2,8.092836E-2],"split_indices":[27,38,0,10,5,5,38,30,5,1,1,33,38,5,38,38,34,30,33,33,38,38,30,34,38,10,5,33,10,1,38,5,25,5,20,10,20,30,28,20,10,30,38,30,0,38,11,20,8,10,0,30,10,0,38,20,10,38,33,7,13,38,11,0,0,0,0,0,0,0,0,0,0,0,0,0,0,0,0,0,0,0,0,0,0,0,0,0,0,0,0,0,0,0,0,0,0,0,0,0,0,0,0,0,0,0,0,0,0,0,0,0,0,0,0,0,0,0,0,0,0,0,0,0,0,0,0],"split_type":[0,0,0,0,0,0,0,0,0,0,0,0,0,0,0,0,0,0,0,0,0,0,0,0,0,0,0,0,0,0,0,0,0,0,0,0,0,0,0,0,0,0,0,0,0,0,0,0,0,0,0,0,0,0,0,0,0,0,0,0,0,0,0,0,0,0,0,0,0,0,0,0,0,0,0,0,0,0,0,0,0,0,0,0,0,0,0,0,0,0,0,0,0,0,0,0,0,0,0,0,0,0,0,0,0,0,0,0,0,0,0,0,0,0,0,0,0,0,0,0,0,0,0,0,0,0,0],"sum_hessian":[1.8746219E5,1.2063275E5,6.682943E4,4.915508E4,7.147767E4,4.166995E4,2.515948E4,3.3282395E4,1.5872682E4,5.144133E4,2.0036346E4,1.186881E4,2.9801139E4,2.057147E4,4.58801E3,2.8301344E4,4.9810513E3,1.1758853E4,4.1138296E3,2.009493E4,3.1346396E4,1.4063129E4,5.9732173E3,1.4493949E3,1.0419415E4,2.5491771E4,4.3093677E3,8.934176E3,1.1637296E4,3.0459446E3,1.5420652E3,9.632739E3,1.8668605E4,3.8220508E3,1.1590004E3,8.907835E3,2.8510176E3,9.459518E2,3.1678777E3,4.401684E3,1.5693245E4,1.9728605E4,1.1617792E4,1.1942228E4,2.1209011E3,4.913653E3,1.0595646E3,1.2183097E3,2.3108513E2,9.271203E3,1.1482115E3,2.155987E4,3.9319028E3,1.1508982E3,3.1584695E3,1.8852899E3,7.0488857E3,9.108851E3,2.528445E3,1.3514209E3,1.6945238E3,1.4502454E3,9.1819786E1,3.3622485E3,6.270491E3,1.0407708E4,8.260897E3,3.316353E3,5.0569797E2,9.232456E2,2.3575479E2,4.5145166E3,4.3933184E3,2.1336062E3,7.1741125E2,3.0777914E2,6.3817267E2,1.5455127E3,1.6223649E3,1.5088679E3,2.8928164E3,1.1753218E4,3.9400278E3,1.4793999E4,4.934607E3,9.468424E3,2.1493674E3,1.0395243E4,1.5469849E3,1.3001075E3,8.207935E2,3.7881904E3,1.1254623E3,8.393528E2,2.2021176E2,1.1190955E3,9.921427E1,2.1596907E2,1.5116067E1,7.5792886E3,1.6919144E3,4.0739844E2,7.4081305E2,1.95238E4,2.0360679E3,1.94077E3,1.9911327E3,4.933441E1,1.1015638E3,2.837744E3,3.2072556E2,1.746988E3,1.3830193E2,5.0902305E3,1.9586553E3,4.171193E3,4.937658E3,4.8852338E2,2.0399216E3,7.153553E2,6.360656E2,1.8052757E1,1.676471E3,1.01039246E3,4.3985287E2,5.6116066E1,3.5703716E1],"tree_param":{"num_deleted":"0","num_feature":"40","num_nodes":"127","size_leaf_vector":"1"}},{"base_weights":[6.495869E-4,-3.8255793E-1,5.230807E-1,1.7087075E-1,-6.738483E-1,7.53965E-1,3.712759E-2,-1.3667163E-1,6.143984E-1,-8.128965E-1,1.3119058E-1,3.729449E-1,9.231146E-1,-3.521428E-1,4.520768E-1,-6.903445E-1,1.1941176E-1,7.468067E-1,-1.3055198E-1,-9.920487E-1,-3.1657293E-1,5.5525875E-1,-3.098215E-1,2.470583E-1,1.1271522E0,7.742379E-1,1.205485E0,-7.168412E-2,-9.253694E-1,2.807297E-1,1.0556221E0,-9.0137374E-1,3.3450422E-1,-1.825595E-2,6.6290164E-1,5.7712466E-1,1.1186842E0,-4.0243828E-1,3.3748475E-1,-5.4744434E-1,-1.1471052E0,-5.484802E-3,-5.561896E-1,4.1779357E-1,1.2436578E0,-5.6277823E-1,4.2200768E-1,4.656135E-1,-9.906321E-2,1.2938747E0,7.767715E-1,8.711988E-1,2.5040722E-1,1.105619E0,1.4905286E0,-1.5744808E-1,5.055107E-1,-1.1961939E0,-3.0891773E-1,8.630508E-2,6.246647E-1,9.756515E-1,1.4835261E0,-1.5438186E-2,-5.883507E-2,4.3327384E-2,-1.6811732E-3,6.11808E-3,-2.6102899E-2,2.4103094E-2,5.5101436E-2,1.7845651E-2,4.3901082E-2,4.6411306E-2,6.5677784E-2,-2.7458785E-2,1.8232694E-2,8.607307E-3,3.9939888E-2,-3.1308018E-2,5.236143E-3,-6.390574E-2,-3.3443242E-2,-7.040664E-3,1.8352618E-2,-3.7380464E-2,-9.067882E-3,1.0056936E-2,3.830231E-2,6.51308E-2,8.206972E-3,-4.8257917E-2,-7.0783175E-3,1.2054655E-2,4.2009935E-2,4.774547E-2,1.5768038E-2,-1.2048281E-2,1.8291244E-2,6.550252E-2,-6.4151846E-2,2.5622914E-2,6.2987946E-2,3.7403714E-2,6.099044E-2,8.492655E-3,4.469274E-2,5.1039595E-2,7.4669816E-2,7.15712E-2,8.504495E-2,-1.9537106E-2,4.0816306E-3,3.754213E-2,6.902631E-3,-6.1978843E-2,4.3909844E-2,-5.209985E-2,-6.886938E-3,-1.3293225E-3,3.485648E-2,3.971552E-2,1.6630609E-2,4.488127E-2,7.191359E-2,7.533412E-2,4.148797E-3],"categories":[],"categories_nodes":[],"categories_segments":[],"categories_sizes":[],"default_left":[0,0,1,0,1,1,1,0,1,0,0,1,0,1,0,1,1,1,0,0,0,1,1,0,0,1,1,1,1,0,0,0,0,1,1,1,0,1,1,1,1,1,0,0,0,0,1,0,1,0,0,1,1,1,0,0,0,0,0,1,0,1,1,0,0,0,0,0,0,0,0,0,0,0,0,0,0,0,0,0,0,0,0,0,0,0,0,0,0,0,0,0,0,0,0,0,0,0,0,0,0,0,0,0,0,0,0,0,0,0,0,0,0,0,0,0,0,0,0,0,0,0,0,0,0,0,0],"id":1,"left_children":[1,3,5,7,9,11,13,15,17,19,21,23,25,27,29,31,33,35,37,39,41,43,45,47,49,51,53,55,57,59,61,63,65,67,69,71,73,75,77,79,81,83,85,87,89,91,93,95,97,99,101,103,105,107,109,111,113,115,117,119,121,123,125,-1,-1,-1,-1,-1,-1,-1,-1,-1,-1,-1,-1,-1,-1,-1,-1,-1,-1,-1,-1,-1,-1,-1,-1,-1,-1,-1,-1,-1,-1,-1,-1,-1,-1,-1,-1,-1,-1,-1,-1,-1,-1,-1,-1,-1,-1,-1,-1,-1,-1,-1,-1,-1,-1,-1,-1,-1,-1,-1,-1,-1,-1,-1,-1],"loss_changes":[3.761315E4,1.747195E4,8.919553E3,5.098079E3,7.948576E3,3.473004E3,4.1362837E3,3.1295088E3,1.5096416E3,5.383551E3,1.9562076E3,1.5730422E3,1.5680449E3,2.1240647E3,1.2815208E3,1.5099253E3,1.1292283E3,8.193174E2,2.9415012E2,3.0664258E3,1.1971777E3,5.0408008E2,9.4948645E2,1.0743761E3,1.3744092E2,1.2411562E3,3.6507812E2,4.393125E2,7.2429297E2,6.455957E2,9.2329346E1,9.4411035E2,2.3361401E2,8.532267E2,2.4169775E2,5.910725E2,1.4985205E2,1.6475806E2,6.4658775E1,5.907234E2,2.0657734E3,3.5240546E2,6.508125E2,3.3531726E2,5.6243896E1,6.457822E2,9.9490585E1,6.396981E2,3.6275897E2,6.855542E1,9.722174E1,8.842754E2,1.9778502E2,3.1242383E2,3.9089844E1,4.309498E2,1.0339572E2,2.724497E2,1.6628238E2,4.2545294E2,1.7249121E2,8.2157715E1,1.3807129E1,0E0,0E0,0E0,0E0,0E0,0E0,0E0,0E0,0E0,0E0,0E0,0E0,0E0,0E0,0E0,0E0,0E0,0E0,0E0,0E0,0E0,0E0,0E0,0E0,0E0,0E0,0E0,0E0,0E0,0E0,0E0,0E0,0E0,0E0,0E0,0E0,0E0,0E0,0E0,0E0,0E0,0E0,0E0,0E0,0E0,0E0,0E0,0E0,0E0,0E0,0E0,0E0,0E0,0E0,0E0,0E0,0E0,0E0,0E0,0E0,0E0,0E0,0E0,0E0],"parents":[2147483647,0,0,1,1,2,2,3,3,4,4,5,5,6,6,7,7,8,8,9,9,10,10,11,11,12,12,13,13,14,14,15,15,16,16,17,17,18,18,19,19,20,20,21,21,22,22,23,23,24,24,25,25,26,26,27,27,28,28,29,29,30,30,31,31,32,32,33,33,34,34,35,35,36,36,37,37,38,38,39,39,40,40,41,41,42,42,43,43,44,44,45,45,46,46,47,47,48,48,49,49,50,50,51,51,52,52,53,53,54,54,55,55,56,56,57,57,58,58,59,59,60,60,61,61,62,62],"right_children":[2,4,6,8,10,12,14,16,18,20,22,24,26,28,30,32,34,36,38,40,42,44,46,48,50,52,54,56,58,60,62,64,66,68,70,72,74,76,78,80,82,84,86,88,90,92,94,96,98,100,102,104,106,108,110,112,114,116,118,120,122,124,126,-1,-1,-1,-1,-1,-1,-1,-1,-1,-1,-1,-1,-1,-1,-1,-1,-1,-1,-1,-1,-1,-1,-1,-1,-1,-1,-1,-1,-1,-1,-1,-1,-1,-1,-1,-1,-1,-1,-1,-1,-1,-1,-1,-1,-1,-1,-1,-1,-1,-1,-1,-1,-1,-1,-1,-1,-1,-1,-1,-1,-1,-1,-1,-1],"split_conditions":[1.08E2,2.0666666E0,1.04E2,2.0833334E1,7E-1,8.0166664E1,8.8666664E1,2.4E1,1.235E2,9.4666664E1,1.20333336E2,1.1E0,3.6E2,4.125E0,5.22E2,1.5E0,1.3E0,1.3E0,2.0254788E0,9.8E1,1.18E2,1.82E1,2.3166666E1,1.0666667E0,9.92E1,4.571429E0,2.6666666E1,1.2E0,2.0833334E1,1.04166664E2,1.11E3,1.15666664E2,1.145E2,1.18166664E2,1.45E1,2.5E1,1.8E1,1.3E0,1E0,1E-1,2.15E1,2.4142857E1,2.35E1,2.1E0,1.06E2,2.4E1,1.5E0,9.8E1,2.2E1,1.11E3,2.1E0,1.2E0,1.45E1,1.33E1,8.16E2,5.656864E0,1.7142857E0,8.82E2,7.042857E1,1E0,7.054549E0,9E-1,1.01E2,-1.5438186E-2,-5.883507E-2,4.3327384E-2,-1.6811732E-3,6.11808E-3,-2.6102899E-2,2.4103094E-2,5.5101436E-2,1.7845651E-2,4.3901082E-2,4.6411306E-2,6.5677784E-2,-2.7458785E-2,1.8232694E-2,8.607307E-3,3.9939888E-2,-3.1308018E-2,5.236143E-3,-6.390574E-2,-3.3443242E-2,-7.040664E-3,1.8352618E-2,-3.7380464E-2,-9.067882E-3,1.0056936E-2,3.830231E-2,6.51308E-2,8.206972E-3,-4.8257917E-2,-7.0783175E-3,1.2054655E-2,4.2009935E-2,4.774547E-2,1.5768038E-2,-1.2048281E-2,1.8291244E-2,6.550252E-2,-6.4151846E-2,2.5622914E-2,6.2987946E-2,3.7403714E-2,6.099044E-2,8.492655E-3,4.469274E-2,5.1039595E-2,7.4669816E-2,7.15712E-2,8.504495E-2,-1.9537106E-2,4.0816306E-3,3.754213E-2,6.902631E-3,-6.1978843E-2,4.3909844E-2,-5.209985E-2,-6.886938E-3,-1.3293225E-3,3.485648E-2,3.971552E-2,1.6630609E-2,4.488127E-2,7.191359E-2,7.533412E-2,4.148797E-3],"split_indices":[38,25,6,10,32,0,0,38,5,0,5,32,38,25,38,30,30,30,28,6,5,34,10,25,21,25,10,30,10,0,38,5,5,5,34,10,34,30,32,36,10,10,10,32,21,38,30,21,10,38,32,30,34,34,38,28,25,38,0,30,3,30,21,0,0,0,0,0,0,0,0,0,0,0,0,0,0,0,0,0,0,0,0,0,0,0,0,0,0,0,0,0,0,0,0,0,0,0,0,0,0,0,0,0,0,0,0,0,0,0,0,0,0,0,0,0,0,0,0,0,0,0,0,0,0,0,0],"split_type":[0,0,0,0,0,0,0,0,0,0,0,0,0,0,0,0,0,0,0,0,0,0,0,0,0,0,0,0,0,0,0,0,0,0,0,0,0,0,0,0,0,0,0,0,0,0,0,0,0,0,0,0,0,0,0,0,0,0,0,0,0,0,0,0,0,0,0,0,0,0,0,0,0,0,0,0,0,0,0,0,0,0,0,0,0,0,0,0,0,0,0,0,0,0,0,0,0,0,0,0,0,0,0,0,0,0,0,0,0,0,0,0,0,0,0,0,0,0,0,0,0,0,0,0,0,0,0],"sum_hessian":[1.878763E5,1.0837938E5,7.949691E4,3.7373355E4,7.100602E4,5.389158E4,2.5605328E4,2.2070412E4,1.5302945E4,6.054802E4,1.045801E4,1.6569938E4,3.7321637E4,1.3211532E4,1.2393797E4,6.9791763E3,1.5091235E4,1.2993471E4,2.3094746E3,4.448851E4,1.6059506E4,5.3312905E3,5.1267188E3,1.420095E4,2.3689878E3,2.4439775E4,1.2881863E4,8.871941E3,4.3395903E3,9.654376E3,2.7394207E3,5.7875645E3,1.1916119E3,1.204194E4,3.0492952E3,8.924095E3,4.069376E3,1.4609419E3,8.485328E2,1.15047295E4,3.298378E4,6.988082E3,9.071424E3,4.4452363E3,8.860543E2,3.8100173E3,1.3167014E3,8.704335E3,5.4966157E3,1.603363E3,7.6562476E2,2.0621986E4,3.8177886E3,9.543236E3,3.3386265E3,7.724852E3,1.1470897E3,3.014358E3,1.3252325E3,6.168568E3,3.485808E3,2.310831E3,4.2858945E2,1.8366072E3,3.950957E3,4.867596E2,7.0485236E2,9.414884E3,2.6270566E3,2.1613242E3,8.87971E2,5.154186E3,3.7699087E3,2.0609077E3,2.0084681E3,1.2265908E3,2.3435101E2,6.256629E2,2.2286989E2,1.0265708E4,1.2390217E3,2.5889834E4,7.0939487E3,5.1264585E3,1.8616237E3,6.004198E3,3.0672253E3,2.7413596E3,1.7038767E3,8.399724E2,4.608194E1,1.9479071E3,1.8621104E3,9.2019165E2,3.9650974E2,2.0437002E3,6.6606343E3,4.211561E3,1.2850549E3,1.5938499E3,9.513116E0,4.9616254E2,2.6946225E2,1.5241895E4,5.380092E3,3.3941357E3,4.2365283E2,7.833316E3,1.7099207E3,2.6124504E3,7.2617596E2,3.9094202E3,3.815432E3,6.872239E2,4.5986578E2,2.9530024E3,6.1355373E1,2.4990773E2,1.0753247E3,5.2071484E3,9.614196E2,2.2039004E3,1.2819078E3,1.9798478E3,3.3098334E2,4.2154404E2,7.04544E0],"tree_param":{"num_deleted":"0","num_feature":"40","num_nodes":"127","size_leaf_vector":"1"}},{"base_weights":[3.9995142E-4,3.2405323E-1,-5.8621424E-1,-3.7699692E-2,6.1603737E-1,-8.991895E-1,-1.4038214E-1,-2.7163815E-1,4.6540788E-1,7.882128E-1,1.7651461E-1,-4.629905E-1,-1.0939839E0,-3.2311434E-1,7.6794505E-1,-4.1098472E-1,3.6976308E-1,6.3682795E-1,-1.6457628E-1,4.7778493E-1,9.663978E-1,-5.4962866E-2,5.3607994E-1,3.7763852E-1,-5.812057E-1,-1.2610991E0,-6.134302E-1,-1.2888246E-2,-6.0059077E-1,5.6293947E-1,1.0647779E0,-6.980908E-1,-1.5702869E-1,4.9080643E-1,-2.2885683E-1,4.8118964E-1,1.059271E0,4.2775908E-1,-3.115413E-1,9.440527E-1,3.49784E-1,8.615395E-1,1.2336174E0,-1.757558E-1,4.42775E-1,2.8250167E-1,7.413288E-1,2.5893548E-1,9.649502E-1,-7.0655334E-1,1.6675457E-1,-1.326999E0,-5.402558E-1,-7.994223E-1,2.7549269E-2,6.090167E-1,-1.7081317E-1,-7.6596093E-1,-2.8541166E-2,3.112443E-1,8.012608E-1,1.1383129E0,-2.4696265E-1,-1.136395E-2,-4.782643E-2,2.9714657E-3,-3.0704275E-2,3.1986978E-2,-3.8706823E-4,5.1942803E-3,-2.988464E-2,1.415427E-2,3.8529273E-2,5.892502E-2,3.4857534E-2,-1.1868168E-2,3.0490821E-2,-2.6807323E-2,-3.867261E-3,5.667236E-2,3.3997107E-2,3.9238468E-2,1.1961202E-2,3.751571E-2,5.855483E-2,5.8239877E-2,7.93727E-2,-1.949302E-2,2.1763786E-3,1.768723E-2,5.655643E-2,8.729279E-3,5.047935E-2,2.8464857E-2,4.979838E-2,1.6576892E-2,-3.099708E-2,2.0259593E-2,5.4627955E-2,-3.7611715E-2,3.5526045E-2,-9.060249E-4,3.0791422E-2,-7.733214E-2,-5.8201708E-2,-1.1233387E-2,-5.4309517E-2,-4.222831E-2,2.1766493E-2,2.3812978E-2,-7.342906E-3,2.5330065E-2,5.731203E-2,-1.591055E-2,1.0995039E-2,-5.269459E-2,-2.3401339E-2,-1.4672885E-2,8.984251E-3,3.1553295E-2,-4.4759056E-3,4.482916E-3,4.351732E-2,5.028679E-2,7.630619E-2,-6.9795676E-2,6.934118E-2],"categories":[],"categories_nodes":[],"categories_segments":[],"categories_sizes":[],"default_left":[1,0,1,1,1,0,0,1,1,1,1,0,1,0,0,0,1,1,0,0,0,0,0,1,0,1,0,0,1,0,0,0,1,0,0,0,0,0,0,0,0,1,0,0,1,1,0,0,0,1,0,0,1,1,1,1,1,0,0,1,1,0,0,0,0,0,0,0,0,0,0,0,0,0,0,0,0,0,0,0,0,0,0,0,0,0,0,0,0,0,0,0,0,0,0,0,0,0,0,0,0,0,0,0,0,0,0,0,0,0,0,0,0,0,0,0,0,0,0,0,0,0,0,0,0,0,0],"id":2,"left_children":[1,3,5,7,9,11,13,15,17,19,21,23,25,27,29,31,33,35,37,39,41,43,45,47,49,51,53,55,57,59,61,63,65,67,69,71,73,75,77,79,81,83,85,87,89,91,93,95,97,99,101,103,105,107,109,111,113,115,117,119,121,123,125,-1,-1,-1,-1,-1,-1,-1,-1,-1,-1,-1,-1,-1,-1,-1,-1,-1,-1,-1,-1,-1,-1,-1,-1,-1,-1,-1,-1,-1,-1,-1,-1,-1,-1,-1,-1,-1,-1,-1,-1,-1,-1,-1,-1,-1,-1,-1,-1,-1,-1,-1,-1,-1,-1,-1,-1,-1,-1,-1,-1,-1,-1,-1,-1],"loss_changes":[3.561069E4,1.2767429E4,9.305383E3,6.354279E3,5.0615234E3,3.3288281E3,4.5660107E3,3.2939336E3,1.8506631E3,2.6578984E3,1.5671079E3,1.2024517E3,2.1744434E3,1.9713604E3,2.797683E2,2.2073643E3,4.7674207E2,8.851782E2,3.19285E2,1.0458015E3,8.544668E2,6.887932E2,3.835796E2,1.0377634E2,9.945554E2,9.5391797E2,8.334487E2,1.0621604E3,1.1435776E3,1.6334729E2,1.8172241E2,1.7288052E3,1.5895662E3,4.062931E2,1.3592776E2,5.642532E2,1.5573071E2,8.844653E1,1.5450076E2,1.8805151E2,6.612865E2,7.542285E2,2.0762695E2,4.3283185E2,1.3671417E2,2.5877344E2,1.7792944E2,7.949652E1,1.7451279E1,5.8860693E2,1.2647273E2,6.5725195E2,2.9006528E2,3.0240723E2,1.2319042E2,1.19919495E2,4.9676086E2,8.039751E2,1.4965433E2,1.7027962E2,6.876001E1,9.0052734E1,1.909122E2,0E0,0E0,0E0,0E0,0E0,0E0,0E0,0E0,0E0,0E0,0E0,0E0,0E0,0E0,0E0,0E0,0E0,0E0,0E0,0E0,0E0,0E0,0E0,0E0,0E0,0E0,0E0,0E0,0E0,0E0,0E0,0E0,0E0,0E0,0E0,0E0,0E0,0E0,0E0,0E0,0E0,0E0,0E0,0E0,0E0,0E0,0E0,0E0,0E0,0E0,0E0,0E0,0E0,0E0,0E0,0E0,0E0,0E0,0E0,0E0,0E0,0E0,0E0,0E0],"parents":[2147483647,0,0,1,1,2,2,3,3,4,4,5,5,6,6,7,7,8,8,9,9,10,10,11,11,12,12,13,13,14,14,15,15,16,16,17,17,18,18,19,19,20,20,21,21,22,22,23,23,24,24,25,25,26,26,27,27,28,28,29,29,30,30,31,31,32,32,33,33,34,34,35,35,36,36,37,37,38,38,39,39,40,40,41,41,42,42,43,43,44,44,45,45,46,46,47,47,48,48,49,49,50,50,51,51,52,52,53,53,54,54,55,55,56,56,57,57,58,58,59,59,60,60,61,61,62,62],"right_children":[2,4,6,8,10,12,14,16,18,20,22,24,26,28,30,32,34,36,38,40,42,44,46,48,50,52,54,56,58,60,62,64,66,68,70,72,74,76,78,80,82,84,86,88,90,92,94,96,98,100,102,104,106,108,110,112,114,116,118,120,122,124,126,-1,-1,-1,-1,-1,-1,-1,-1,-1,-1,-1,-1,-1,-1,-1,-1,-1,-1,-1,-1,-1,-1,-1,-1,-1,-1,-1,-1,-1,-1,-1,-1,-1,-1,-1,-1,-1,-1,-1,-1,-1,-1,-1,-1,-1,-1,-1,-1,-1,-1,-1,-1,-1,-1,-1,-1,-1,-1,-1,-1,-1,-1,-1,-1],"split_conditions":[5E0,9.6E1,8.85E1,2.2E1,1.17E2,1.01E2,2.04E2,1.4E0,1.22833336E2,7.6E1,8.6E1,1E0,2.0666666E1,1.07E2,4.32E2,3.6E1,1.21E2,1.5E0,1E0,1E0,4.08E2,4.62E2,1.7511901E0,1E0,1.56E2,1.5E0,1.5E2,1E0,2.4333334E1,9.3E1,1.404E3,1.17E2,1.162E2,1.0615E2,3E0,2.5833334E1,1.0615E2,1E0,1.7511901E0,9.91E1,9.8E1,1.2E0,9.72E2,1.7511901E0,1.3E0,1.2E0,3.6E2,1.0216E2,1E0,1.8E0,4.02E2,3.6E1,1.27166664E2,1.3E0,1.04333336E2,1.5E0,2.3666666E1,4.2E1,2.6666666E1,1.15333336E2,9.72E1,8.82E2,1.8285715E1,-1.136395E-2,-4.782643E-2,2.9714657E-3,-3.0704275E-2,3.1986978E-2,-3.8706823E-4,5.1942803E-3,-2.988464E-2,1.415427E-2,3.8529273E-2,5.892502E-2,3.4857534E-2,-1.1868168E-2,3.0490821E-2,-2.6807323E-2,-3.867261E-3,5.667236E-2,3.3997107E-2,3.9238468E-2,1.1961202E-2,3.751571E-2,5.855483E-2,5.8239877E-2,7.93727E-2,-1.949302E-2,2.1763786E-3,1.768723E-2,5.655643E-2,8.729279E-3,5.047935E-2,2.8464857E-2,4.979838E-2,1.6576892E-2,-3.099708E-2,2.0259593E-2,5.4627955E-2,-3.7611715E-2,3.5526045E-2,-9.060249E-4,3.0791422E-2,-7.733214E-2,-5.8201708E-2,-1.1233387E-2,-5.4309517E-2,-4.222831E-2,2.1766493E-2,2.3812978E-2,-7.342906E-3,2.5330065E-2,5.731203E-2,-1.591055E-2,1.0995039E-2,-5.269459E-2,-2.3401339E-2,-1.4672885E-2,8.984251E-3,3.1553295E-2,-4.4759056E-3,4.482916E-3,4.351732E-2,5.028679E-2,7.630619E-2,-6.9795676E-2,6.934118E-2],"split_indices":[27,38,0,10,5,6,38,30,5,1,1,33,10,6,38,38,5,30,33,33,38,38,28,36,38,30,38,33,10,1,38,5,5,20,26,10,20,30,28,20,20,30,38,28,30,30,38,20,30,36,38,38,5,36,5,36,10,38,10,5,22,38,10,0,0,0,0,0,0,0,0,0,0,0,0,0,0,0,0,0,0,0,0,0,0,0,0,0,0,0,0,0,0,0,0,0,0,0,0,0,0,0,0,0,0,0,0,0,0,0,0,0,0,0,0,0,0,0,0,0,0,0,0,0,0,0,0],"split_type":[0,0,0,0,0,0,0,0,0,0,0,0,0,0,0,0,0,0,0,0,0,0,0,0,0,0,0,0,0,0,0,0,0,0,0,0,0,0,0,0,0,0,0,0,0,0,0,0,0,0,0,0,0,0,0,0,0,0,0,0,0,0,0,0,0,0,0,0,0,0,0,0,0,0,0,0,0,0,0,0,0,0,0,0,0,0,0,0,0,0,0,0,0,0,0,0,0,0,0,0,0,0,0,0,0,0,0,0,0,0,0,0,0,0,0,0,0,0,0,0,0,0,0,0,0,0,0],"sum_hessian":[1.8756128E5,1.2087258E5,6.668871E4,5.3986734E4,6.688584E4,3.9181902E4,2.7506805E4,3.6851656E4,1.713508E4,4.8058836E4,1.8827004E4,1.2096917E4,2.7084986E4,2.2900463E4,4.606343E3,3.0274729E4,6.576927E3,1.3469885E4,3.6651953E3,1.7527215E4,3.0531623E4,1.1454064E4,7.3729395E3,1.4911495E3,1.0605767E4,2.009516E4,6.989826E3,1.0812663E4,1.20878E4,2.7263228E3,1.88002E3,1.4209101E4,1.6065629E4,5.470874E3,1.1060526E3,9.844917E3,3.6249678E3,7.2822186E2,2.9369734E3,3.773855E3,1.3753359E4,2.193029E4,8.601335E3,9.21772E3,2.2363445E3,3.2992275E3,4.0737117E3,1.2416396E3,2.4950995E2,9.083548E3,1.5222192E3,1.8411162E4,1.6839995E3,5.41757E3,1.572256E3,2.1891157E3,8.623547E3,9.376786E3,2.7110137E3,1.3270787E3,1.399244E3,1.7803475E3,9.967247E1,5.03621E3,9.172891E3,1.0902957E4,5.1626724E3,4.212249E3,1.2586249E3,5.8185504E2,5.241976E2,5.8454355E3,3.9994812E3,2.725374E3,8.995938E2,1.564282E2,5.7179364E2,1.4985262E3,1.4384471E3,2.195887E3,1.577968E3,2.7860134E3,1.0967346E4,1.61359795E4,5.7943086E3,7.2043994E3,1.3969355E3,4.6635405E3,4.5541797E3,1.9815662E3,2.5477837E2,2.873913E3,4.253144E2,2.4331406E3,1.6405712E3,1.147472E3,9.4167656E1,4.7096348E1,2.024136E2,8.800329E3,2.8321912E2,1.0789825E3,4.432367E2,7.838266E3,1.0572895E4,1.0680209E3,6.1597864E2,5.2267886E3,1.907813E2,4.3958185E2,1.1326742E3,1.8402388E3,3.48877E2,6.2615483E3,2.361999E3,4.767154E3,4.6096323E3,1.1929144E3,1.5180991E3,7.377529E2,5.893258E2,1.24026924E2,1.275217E3,1.3294534E3,4.508941E2,5.8604668E1,4.10678E1],"tree_param":{"num_deleted":"0","num_feature":"40","num_nodes":"127","size_leaf_vector":"1"}},{"base_weights":[2.9493173E-4,3.0916482E-1,-5.5818087E-1,-1.0137263E-1,5.460662E-1,-8.376761E-1,-9.723573E-2,-2.8156197E-1,5.6989217E-1,7.00766E-1,1.0140191E-1,-4.0358433E-1,-1.0099148E0,-2.686435E-1,7.473447E-1,-4.2767075E-1,3.5871872E-1,7.400955E-1,-3.285376E-2,5.424501E-1,9.959337E-1,-3.020061E-2,5.8724904E-1,-4.935287E-1,4.7416395E-1,-1.1391063E0,-3.9358804E-1,-3.806934E-1,4.6665025E-1,5.441961E-1,1.0312372E0,4.0434174E-2,-5.6478804E-1,1.7801796E-1,9.335556E-1,5.486854E-1,1.0339966E0,-2.2792464E-1,5.713748E-1,4.486299E-1,1.0473851E0,9.208764E-1,1.3708626E0,1.336509E-1,-3.608425E-1,4.6751395E-1,1.0905252E0,-5.899823E-1,2.9239857E-1,3.4156552E-1,1.1743482E0,-1.2218819E0,-5.001243E-1,-5.8091295E-1,2.2311048E-1,-1.0450868E-1,-6.157747E-1,5.6370056E-1,-6.2725914E-1,-1.477859E0,5.6609094E-1,1.0994568E0,-2.2979087E-1,-7.2850096E-3,2.390782E-2,-4.7355942E-2,-1.7696977E-2,1.5359937E-2,-1.9964576E-2,5.445219E-2,1.6406514E-2,3.5768382E-2,1.1271102E-2,6.1399873E-2,2.66275E-2,-1.9545538E-2,5.013994E-3,3.419335E-2,-2.0243255E-2,1.1985473E-2,3.395353E-2,5.8173746E-2,3.8969204E-2,3.984651E-2,5.632351E-2,6.5974206E-2,8.569785E-2,1.3574016E-3,2.8678164E-2,-2.9705957E-2,-3.7169893E-4,1.829168E-2,5.2443244E-2,4.958218E-2,7.584288E-2,-3.3288408E-2,4.138916E-3,-5.8010276E-3,2.493888E-2,2.0233268E-2,-1.8647727E-2,6.1669964E-2,-2.3511196E-2,-6.280218E-2,-2.2081472E-3,4.6202415E-3,-4.1568574E-2,-3.3374023E-2,8.651393E-3,2.8095549E-2,-3.5312034E-3,-1.1878928E-2,1.1663294E-2,-4.2643677E-2,-1.4011592E-2,3.9929792E-2,1.0638862E-2,-4.19794E-2,5.5572987E-2,4.459794E-2,-8.405812E-2,3.566888E-2,1.5365742E-2,4.8919123E-2,7.226693E-2,-9.096421E-2,5.3796407E-2],"categories":[],"categories_nodes":[],"categories_segments":[],"categories_sizes":[],"default_left":[1,0,1,1,1,0,0,1,1,1,1,1,1,1,0,0,1,1,1,1,1,1,0,0,1,0,0,0,0,1,0,1,0,1,0,0,0,1,0,1,0,0,0,0,1,1,0,1,1,0,0,1,1,1,1,1,0,0,1,0,1,0,1,0,0,0,0,0,0,0,0,0,0,0,0,0,0,0,0,0,0,0,0,0,0,0,0,0,0,0,0,0,0,0,0,0,0,0,0,0,0,0,0,0,0,0,0,0,0,0,0,0,0,0,0,0,0,0,0,0,0,0,0,0,0,0,0],"id":3,"left_children":[1,3,5,7,9,11,13,15,17,19,21,23,25,27,29,31,33,35,37,39,41,43,45,47,49,51,53,55,57,59,61,63,65,67,69,71,73,75,77,79,81,83,85,87,89,91,93,95,97,99,101,103,105,107,109,111,113,115,117,119,121,123,125,-1,-1,-1,-1,-1,-1,-1,-1,-1,-1,-1,-1,-1,-1,-1,-1,-1,-1,-1,-1,-1,-1,-1,-1,-1,-1,-1,-1,-1,-1,-1,-1,-1,-1,-1,-1,-1,-1,-1,-1,-1,-1,-1,-1,-1,-1,-1,-1,-1,-1,-1,-1,-1,-1,-1,-1,-1,-1,-1,-1,-1,-1,-1,-1],"loss_changes":[3.2262004E4,1.1712405E4,8.580533E3,5.3301167E3,5.252842E3,3.0996152E3,3.639938E3,3.250191E3,9.567478E2,2.6468145E3,1.2602977E3,9.3022595E2,2.3630742E3,1.7221995E3,2.4408325E2,1.8156089E3,6.7036896E2,4.0853857E2,2.4228737E2,1.7464922E3,5.5528125E2,8.4035187E2,2.5265234E2,8.1017847E2,1.0129971E2,1.2973125E3,5.9454193E2,1.1775371E3,2.9382568E2,1.1039923E2,1.5236865E2,5.22282E2,1.7633491E3,3.6649374E2,1.4495825E2,2.372528E2,2.78261E2,8.31563E1,5.5371887E1,1.4971147E3,1.7884473E2,4.1908203E2,5.5851562E1,4.859253E2,4.2372522E2,2.0033173E2,3.2501892E1,4.8531885E2,9.85656E1,4.173832E1,1.7478104E1,8.739629E2,5.527806E2,2.5771582E2,1.1941294E2,3.7496036E2,7.7923535E2,2.0916888E2,8.427024E1,1.4404957E1,9.312042E1,6.88418E1,1.9201837E2,0E0,0E0,0E0,0E0,0E0,0E0,0E0,0E0,0E0,0E0,0E0,0E0,0E0,0E0,0E0,0E0,0E0,0E0,0E0,0E0,0E0,0E0,0E0,0E0,0E0,0E0,0E0,0E0,0E0,0E0,0E0,0E0,0E0,0E0,0E0,0E0,0E0,0E0,0E0,0E0,0E0,0E0,0E0,0E0,0E0,0E0,0E0,0E0,0E0,0E0,0E0,0E0,0E0,0E0,0E0,0E0,0E0,0E0,0E0,0E0,0E0,0E0,0E0,0E0],"parents":[2147483647,0,0,1,1,2,2,3,3,4,4,5,5,6,6,7,7,8,8,9,9,10,10,11,11,12,12,13,13,14,14,15,15,16,16,17,17,18,18,19,19,20,20,21,21,22,22,23,23,24,24,25,25,26,26,27,27,28,28,29,29,30,30,31,31,32,32,33,33,34,34,35,35,36,36,37,37,38,38,39,39,40,40,41,41,42,42,43,43,44,44,45,45,46,46,47,47,48,48,49,49,50,50,51,51,52,52,53,53,54,54,55,55,56,56,57,57,58,58,59,59,60,60,61,61,62,62],"right_children":[2,4,6,8,10,12,14,16,18,20,22,24,26,28,30,32,34,36,38,40,42,44,46,48,50,52,54,56,58,60,62,64,66,68,70,72,74,76,78,80,82,84,86,88,90,92,94,96,98,100,102,104,106,108,110,112,114,116,118,120,122,124,126,-1,-1,-1,-1,-1,-1,-1,-1,-1,-1,-1,-1,-1,-1,-1,-1,-1,-1,-1,-1,-1,-1,-1,-1,-1,-1,-1,-1,-1,-1,-1,-1,-1,-1,-1,-1,-1,-1,-1,-1,-1,-1,-1,-1,-1,-1,-1,-1,-1,-1,-1,-1,-1,-1,-1,-1,-1,-1,-1,-1,-1,-1,-1,-1],"split_conditions":[5E0,7.2E1,9.0166664E1,2.3714285E1,1.19333336E2,1.11E2,2.04E2,1.4E0,1.2E2,2.3571428E1,1.02333336E2,1.2E0,2.2166666E1,1.3E0,4.32E2,1.08666664E2,1.67E1,1.5E0,1E0,1.2E0,1.5E0,1.1666666E0,5.64E2,2.1E2,1.8E1,1.74E2,1.62E2,1.07E2,1.0615E2,4.082483E-1,1.404E3,9.3833336E1,2.4E1,1.08E2,1.0615E2,3E0,1.0615E2,1.01166664E2,1.5033333E2,8.6333336E1,1.004E2,3.18E2,5.88E2,5.04E2,2.15E1,1.2E0,1.11E3,1E-1,7.3333336E1,1.024E2,1.1940128E1,1.4E0,1.03E2,3E-1,1.186E2,2.3666666E1,5.4E1,1.2E2,2.9E0,1.01166664E2,1.198E2,8.82E2,1E2,-7.2850096E-3,2.390782E-2,-4.7355942E-2,-1.7696977E-2,1.5359937E-2,-1.9964576E-2,5.445219E-2,1.6406514E-2,3.5768382E-2,1.1271102E-2,6.1399873E-2,2.66275E-2,-1.9545538E-2,5.013994E-3,3.419335E-2,-2.0243255E-2,1.1985473E-2,3.395353E-2,5.8173746E-2,3.8969204E-2,3.984651E-2,5.632351E-2,6.5974206E-2,8.569785E-2,1.3574016E-3,2.8678164E-2,-2.9705957E-2,-3.7169893E-4,1.829168E-2,5.2443244E-2,4.958218E-2,7.584288E-2,-3.3288408E-2,4.138916E-3,-5.8010276E-3,2.493888E-2,2.0233268E-2,-1.8647727E-2,6.1669964E-2,-2.3511196E-2,-6.280218E-2,-2.2081472E-3,4.6202415E-3,-4.1568574E-2,-3.3374023E-2,8.651393E-3,2.8095549E-2,-3.5312034E-3,-1.1878928E-2,1.1663294E-2,-4.2643677E-2,-1.4011592E-2,3.9929792E-2,1.0638862E-2,-4.19794E-2,5.5572987E-2,4.459794E-2,-8.405812E-2,3.566888E-2,1.5365742E-2,4.8919123E-2,7.226693E-2,-9.096421E-2,5.3796407E-2],"split_indices":[27,38,0,10,5,5,38,30,5,10,0,32,10,32,38,5,34,32,32,32,32,25,38,38,34,38,38,6,20,13,38,0,38,6,20,27,20,0,5,0,20,38,38,38,10,30,38,36,0,22,3,36,6,36,5,10,38,5,30,5,5,38,17,0,0,0,0,0,0,0,0,0,0,0,0,0,0,0,0,0,0,0,0,0,0,0,0,0,0,0,0,0,0,0,0,0,0,0,0,0,0,0,0,0,0,0,0,0,0,0,0,0,0,0,0,0,0,0,0,0,0,0,0,0,0,0,0],"split_type":[0,0,0,0,0,0,0,0,0,0,0,0,0,0,0,0,0,0,0,0,0,0,0,0,0,0,0,0,0,0,0,0,0,0,0,0,0,0,0,0,0,0,0,0,0,0,0,0,0,0,0,0,0,0,0,0,0,0,0,0,0,0,0,0,0,0,0,0,0,0,0,0,0,0,0,0,0,0,0,0,0,0,0,0,0,0,0,0,0,0,0,0,0,0,0,0,0,0,0,0,0,0,0,0,0,0,0,0,0,0,0,0,0,0,0,0,0,0,0,0,0,0,0,0,0,0,0],"sum_hessian":[1.8702805E5,1.204259E5,6.660214E4,4.4064703E4,7.6361195E4,4.1461215E4,2.5140926E4,3.473995E4,9.324754E3,5.6651445E4,1.9709752E4,1.1778727E4,2.9682488E4,2.0899957E4,4.2409688E3,2.8285643E4,6.4543066E3,7.271266E3,2.053488E3,3.6875668E4,1.9775775E4,1.5509576E4,4.2001763E3,1.0684323E4,1.094403E3,2.4538084E4,5.1444033E3,1.8136635E4,2.7633225E3,2.4737285E3,1.7672401E3,6.4084683E3,2.1877174E4,4.9116367E3,1.5426702E3,4.405164E3,2.8661023E3,1.5528002E3,5.0068774E2,3.1099135E4,5.776533E3,1.6480074E4,3.2957024E3,1.0370842E4,5.138735E3,3.3945122E3,8.0566406E2,9.516636E3,1.167688E3,9.213995E2,1.7300354E2,2.1723098E4,2.8149866E3,3.9458823E3,1.1985212E3,8.339931E3,9.796704E3,2.538587E3,2.247356E2,2.5786316E1,2.4479421E3,1.6766635E3,9.05766E1,4.4969004E3,1.9115677E3,7.7751084E3,1.4102065E4,4.0139329E3,8.977037E2,1.2267992E3,3.15871E2,2.905702E3,1.499462E3,2.0655347E3,8.0056744E2,1.0374248E3,5.153754E2,4.492232E2,5.146452E1,1.631227E4,1.4786865E4,4.0282693E3,1.7482639E3,1.028465E4,6.1954233E3,2.8706653E3,4.2503717E2,8.350296E3,2.0205461E3,3.0950708E3,2.0436641E3,2.8905703E3,5.039419E2,6.566822E2,1.4898187E2,8.553143E3,9.6349304E2,3.921233E2,7.7556464E2,8.470311E2,7.4368324E1,1.6724825E2,5.7552953E0,2.1110682E4,6.1241705E2,1.0096549E3,1.8053317E3,3.539582E3,4.0630035E2,5.5614136E2,6.423798E2,5.9831157E3,2.3568152E3,5.7395337E3,4.05717E3,1.5199272E3,1.0186596E3,2.0073889E2,2.39967E1,1.7697525E0,2.4016563E1,1.558908E3,8.890343E2,1.2447672E3,4.318963E2,4.067198E1,4.990462E1],"tree_param":{"num_deleted":"0","num_feature":"40","num_nodes":"127","size_leaf_vector":"1"}},{"base_weights":[6.1698357E-4,4.5293164E-1,-3.3581406E-1,2.2893369E-1,7.147871E-1,-5.854291E-1,1.2731484E-1,1.07008226E-1,6.991917E-1,5.9734124E-1,1.0645416E0,-3.1784573E-1,-8.55317E-1,3.565406E-2,7.058027E-1,-5.8735665E-2,3.8687798E-1,4.6209463E-1,8.8804114E-1,7.0848525E-1,2.2023043E-1,8.7752557E-1,1.203881E0,4.086455E-1,-4.23675E-1,-1.0278754E0,-4.6423492E-1,-1.4444323E-1,2.9822853E-1,6.1163896E-1,1.3103404E0,-3.7615722E-1,6.160139E-2,6.8967175E-1,2.1492569E-1,2.8151387E-1,6.7374766E-1,9.8267925E-1,5.32707E-1,6.066756E-1,1.0406425E0,-2.3654E-2,3.9124268E-1,1.0564468E0,7.1181613E-1,1.2709649E0,9.255922E-1,2.0394813E-1,1.1084751E0,-5.4920226E-1,-3.147468E-2,-7.1934736E-1,-1.1750393E0,-6.852635E-1,-1.8120334E-1,2.4186095E-2,-4.35459E-1,1.8386747E-1,6.0933703E-1,7.027165E-1,-4.1167088E-2,1.1327429E0,1.4869694E0,-2.8353645E-2,9.175283E-3,1.600314E-2,-5.2017025E-3,4.1443437E-2,1.634919E-2,1.9894226E-2,5.610831E-4,6.0330364E-3,3.0685965E-2,1.682823E-2,3.8538426E-2,4.5151483E-2,6.68442E-2,2.256115E-2,6.1101675E-2,2.1916633E-2,4.11774E-2,4.6932064E-2,6.303596E-2,1.4008072E-2,-8.044003E-3,3.0415326E-2,1.0396261E-2,5.6956198E-2,3.5290737E-2,1.5917663E-2,4.235907E-2,5.969867E-2,7.088502E-2,2.9372035E-2,5.2724678E-2,3.0137033E-3,3.720835E-2,5.8805924E-2,3.100591E-2,-9.4829565E-3,-3.3067744E-2,-5.77055E-3,3.3864543E-2,-3.7694883E-2,3.4440216E-2,-6.007122E-2,3.105911E-3,-2.3726966E-2,-4.091124E-2,-1.0786322E-2,3.609115E-2,1.416101E-2,-8.63913E-3,-3.1246701E-2,-1.3778193E-3,1.9806208E-2,5.1164156E-4,1.9587932E-2,3.7951436E-2,4.0460926E-2,1.6185654E-3,-9.87703E-3,3.661851E-2,2.0428695E-2,6.1371483E-2,6.1076928E-2,7.772319E-2],"categories":[],"categories_nodes":[],"categories_segments":[],"categories_sizes":[],"default_left":[0,1,1,1,1,1,1,1,0,1,0,0,1,0,1,0,0,1,0,0,0,0,0,1,1,1,0,1,1,0,0,1,0,1,1,0,1,1,1,1,0,0,0,0,0,1,0,0,0,0,1,1,1,1,1,1,1,1,0,1,1,1,0,0,0,0,0,0,0,0,0,0,0,0,0,0,0,0,0,0,0,0,0,0,0,0,0,0,0,0,0,0,0,0,0,0,0,0,0,0,0,0,0,0,0,0,0,0,0,0,0,0,0,0,0,0,0,0,0,0,0,0,0,0,0,0,0],"id":4,"left_children":[1,3,5,7,9,11,13,15,17,19,21,23,25,27,29,31,33,35,37,39,41,43,45,47,49,51,53,55,57,59,61,63,65,67,69,71,73,75,77,79,81,83,85,87,89,91,93,95,97,99,101,103,105,107,109,111,113,115,117,119,121,123,125,-1,-1,-1,-1,-1,-1,-1,-1,-1,-1,-1,-1,-1,-1,-1,-1,-1,-1,-1,-1,-1,-1,-1,-1,-1,-1,-1,-1,-1,-1,-1,-1,-1,-1,-1,-1,-1,-1,-1,-1,-1,-1,-1,-1,-1,-1,-1,-1,-1,-1,-1,-1,-1,-1,-1,-1,-1,-1,-1,-1,-1,-1,-1,-1],"loss_changes":[2.843546E4,4.674908E3,1.2388034E4,2.463039E3,1.5088086E3,5.0282324E3,1.9899681E3,1.5825177E3,3.956172E2,1.1529434E3,2.39625E2,2.688492E3,2.3388848E3,1.5320853E3,2.9140405E2,8.1848737E2,6.605259E2,1.4976855E2,1.6500073E2,7.179199E2,2.6126346E2,1.1627588E2,9.758154E1,6.3673676E2,1.502562E3,1.0911992E3,6.6390186E2,9.430863E2,4.688496E2,2.6420447E2,1.998877E1,6.2947546E2,6.652124E2,2.3173486E2,3.016771E2,1.1315103E2,5.880957E1,1.0841919E2,5.771945E1,5.934873E2,1.106875E2,1.07727356E2,1.4639264E2,5.4154785E1,1.0903711E2,4.643213E1,4.432831E1,2.6706085E2,3.2503418E1,9.321787E2,4.4037228E2,3.7854248E2,5.315801E2,1.6659302E2,1.4530162E2,6.2088763E2,5.448855E2,3.5526126E2,1.1507898E2,2.78354E2,6.606225E1,2.340924E1,4.249634E0,0E0,0E0,0E0,0E0,0E0,0E0,0E0,0E0,0E0,0E0,0E0,0E0,0E0,0E0,0E0,0E0,0E0,0E0,0E0,0E0,0E0,0E0,0E0,0E0,0E0,0E0,0E0,0E0,0E0,0E0,0E0,0E0,0E0,0E0,0E0,0E0,0E0,0E0,0E0,0E0,0E0,0E0,0E0,0E0,0E0,0E0,0E0,0E0,0E0,0E0,0E0,0E0,0E0,0E0,0E0,0E0,0E0,0E0,0E0,0E0,0E0,0E0,0E0,0E0],"parents":[2147483647,0,0,1,1,2,2,3,3,4,4,5,5,6,6,7,7,8,8,9,9,10,10,11,11,12,12,13,13,14,14,15,15,16,16,17,17,18,18,19,19,20,20,21,21,22,22,23,23,24,24,25,25,26,26,27,27,28,28,29,29,30,30,31,31,32,32,33,33,34,34,35,35,36,36,37,37,38,38,39,39,40,40,41,41,42,42,43,43,44,44,45,45,46,46,47,47,48,48,49,49,50,50,51,51,52,52,53,53,54,54,55,55,56,56,57,57,58,58,59,59,60,60,61,61,62,62],"right_children":[2,4,6,8,10,12,14,16,18,20,22,24,26,28,30,32,34,36,38,40,42,44,46,48,50,52,54,56,58,60,62,64,66,68,70,72,74,76,78,80,82,84,86,88,90,92,94,96,98,100,102,104,106,108,110,112,114,116,118,120,122,124,126,-1,-1,-1,-1,-1,-1,-1,-1,-1,-1,-1,-1,-1,-1,-1,-1,-1,-1,-1,-1,-1,-1,-1,-1,-1,-1,-1,-1,-1,-1,-1,-1,-1,-1,-1,-1,-1,-1,-1,-1,-1,-1,-1,-1,-1,-1,-1,-1,-1,-1,-1,-1,-1,-1,-1,-1,-1,-1,-1,-1,-1,-1,-1,-1],"split_conditions":[1.0666667E0,2.6E1,9.25E1,1.3E0,1.2E0,1.01E2,1.3E0,8.8833336E1,1.45E1,1.07E2,1.68E1,8.22E1,2.6E1,1.0525E2,2.19E1,1.77E1,9.88E1,2E-1,1.0615E2,2.5E1,8.8333336E1,2.46E1,1.0615E2,1.65E1,1.8E1,4.125E0,1.9E1,1.09E2,2.1E1,1.0615E2,2.81E1,2E-1,9.86E1,1.25E2,9.7888885E1,9E1,9.56E1,2.38E1,2.81E1,9.3333336E1,3E1,9.85E1,9.9E1,1.0615E2,7.86E1,2.05E1,1.9E1,3.6E0,1.0615E2,9E1,1.3E0,1.9E1,1.7E0,4.571429E0,1.85E1,4.6E0,2.9E1,4.571429E0,3.2E1,1.15E2,2.5E0,9.6E1,1.9E0,-2.8353645E-2,9.175283E-3,1.600314E-2,-5.2017025E-3,4.1443437E-2,1.634919E-2,1.9894226E-2,5.610831E-4,6.0330364E-3,3.0685965E-2,1.682823E-2,3.8538426E-2,4.5151483E-2,6.68442E-2,2.256115E-2,6.1101675E-2,2.1916633E-2,4.11774E-2,4.6932064E-2,6.303596E-2,1.4008072E-2,-8.044003E-3,3.0415326E-2,1.0396261E-2,5.6956198E-2,3.5290737E-2,1.5917663E-2,4.235907E-2,5.969867E-2,7.088502E-2,2.9372035E-2,5.2724678E-2,3.0137033E-3,3.720835E-2,5.8805924E-2,3.100591E-2,-9.4829565E-3,-3.3067744E-2,-5.77055E-3,3.3864543E-2,-3.7694883E-2,3.4440216E-2,-6.007122E-2,3.105911E-3,-2.3726966E-2,-4.091124E-2,-1.0786322E-2,3.609115E-2,1.416101E-2,-8.63913E-3,-3.1246701E-2,-1.3778193E-3,1.9806208E-2,5.1164156E-4,1.9587932E-2,3.7951436E-2,4.0460926E-2,1.6185654E-3,-9.87703E-3,3.661851E-2,2.0428695E-2,6.1371483E-2,6.1076928E-2,7.772319E-2],"split_indices":[25,12,0,30,30,6,32,0,34,6,34,36,12,0,34,34,20,36,20,11,0,36,20,34,11,25,11,6,11,20,34,36,20,7,15,0,21,34,34,0,11,21,21,20,0,34,11,36,20,6,32,34,36,25,34,25,12,25,12,6,30,21,32,0,0,0,0,0,0,0,0,0,0,0,0,0,0,0,0,0,0,0,0,0,0,0,0,0,0,0,0,0,0,0,0,0,0,0,0,0,0,0,0,0,0,0,0,0,0,0,0,0,0,0,0,0,0,0,0,0,0,0,0,0,0,0,0],"split_type":[0,0,0,0,0,0,0,0,0,0,0,0,0,0,0,0,0,0,0,0,0,0,0,0,0,0,0,0,0,0,0,0,0,0,0,0,0,0,0,0,0,0,0,0,0,0,0,0,0,0,0,0,0,0,0,0,0,0,0,0,0,0,0,0,0,0,0,0,0,0,0,0,0,0,0,0,0,0,0,0,0,0,0,0,0,0,0,0,0,0,0,0,0,0,0,0,0,0,0,0,0,0,0,0,0,0,0,0,0,0,0,0,0,0,0,0,0,0,0,0,0,0,0,0,0,0,0],"sum_hessian":[1.8686108E5,7.970345E4,1.0715763E5,4.295797E4,3.674548E4,6.962904E4,3.752859E4,3.411427E4,8.8437E3,2.7510344E4,9.235136E3,3.4964895E4,3.466415E4,3.2396467E4,5.1321235E3,2.1426125E4,1.2688145E4,3.922509E3,4.9211914E3,2.1247342E4,6.263004E3,3.946113E3,5.289023E3,4.4454106E3,3.0519484E4,2.4050596E4,1.0613552E4,1.9216504E4,1.3179963E4,4.44221E3,6.8991364E2,5.889321E3,1.5536804E4,4.594536E3,8.0936084E3,2.11788E3,1.8046292E3,3.8847732E3,1.0364182E3,1.6264828E4,4.982513E3,2.581842E3,3.6811616E3,1.8948328E3,2.0512803E3,4.2588306E3,1.0301925E3,3.4403992E3,1.00501166E3,2.3119484E4,7.4E3,7.7689414E3,1.6281653E4,5.9587485E3,4.6548027E3,1.2167153E4,7.04935E3,9.638512E3,3.5414514E3,3.8982598E3,5.439502E2,3.4771014E2,3.422035E2,4.391315E3,1.4980057E3,6.0676963E3,9.469107E3,3.3193198E3,1.2752163E3,4.2634214E3,3.8301873E3,1.427871E3,6.900089E2,4.0423465E2,1.4003945E3,3.174481E3,7.102923E2,9.283359E2,1.0808229E2,9.158637E3,7.106191E3,3.4081616E3,1.5743514E3,8.029926E2,1.7788496E3,1.684385E3,1.9967766E3,1.5314718E3,3.63361E2,5.2592865E2,1.5253517E3,2.799227E3,1.4596036E3,2.8585526E2,7.443373E2,2.718509E3,7.2189026E2,8.815042E2,1.2350742E2,5.4976367E3,1.7621848E4,6.6171895E3,7.828106E2,7.583342E3,1.8559956E2,1.5941691E4,3.3996246E2,2.3070227E3,3.6517258E3,4.484134E3,1.7066934E2,5.255367E3,6.9117866E3,4.8130884E3,2.236262E3,4.336343E3,5.3021694E3,1.4448965E3,2.096555E3,3.3636487E3,5.3461127E2,4.5309912E2,9.08511E1,4.0821346E1,3.0688882E2,7.324718E1,2.6895633E2],"tree_param":{"num_deleted":"0","num_feature":"40","num_nodes":"127","size_leaf_vector":"1"}},{"base_weights":[-4.603517E-4,2.7990425E-1,-5.0923747E-1,7.439896E-2,6.007753E-1,-7.7632976E-1,-8.431626E-2,2.544718E-1,-2.9460758E-1,7.1405303E-1,1.2585525E-1,-3.9546525E-1,-9.346447E-1,-2.7742127E-1,2.206502E-1,1.1489189E-1,6.6132194E-1,-7.163165E-2,-5.319284E-1,5.547957E-1,9.180481E-1,-1.3208543E-1,3.6261368E-1,-4.822141E-1,4.327844E-1,-1.078624E0,-5.689363E-1,-3.450262E-1,5.2515256E-1,1.4647792E-1,7.2571063E-1,9.484258E-3,6.159547E-1,5.379221E-1,1.0104239E0,-2.8184912E-1,1.9616577E-1,-8.2813615E-1,-3.033104E-1,4.550536E-1,8.728637E-1,8.314276E-1,1.1213272E0,7.825993E-2,-4.1023964E-1,1.704807E-1,5.619351E-1,-6.6786754E-1,-2.478961E-1,2.846861E-1,1.0487623E0,-1.1451241E0,-4.4066596E-1,-7.9027E-1,-3.2605577E-1,-5.9602454E-2,-5.161208E-1,9.7515106E-1,1.908217E-1,7.1277847E-3,4.002438E-1,-2.88148E-1,8.030815E-1,6.8731606E-3,-1.3953759E-2,1.8464996E-2,4.1153207E-2,2.1380821E-2,4.5465525E-2,3.9804664E-2,5.9607327E-2,-1.8438123E-2,1.4837272E-2,5.976732E-3,3.4732774E-2,-4.961482E-2,-2.5850032E-2,-2.0298468E-2,7.961194E-3,6.277756E-3,2.756518E-2,4.8195716E-2,2.4940073E-2,4.5944314E-2,3.093243E-2,6.0659595E-2,5.0540563E-2,1.788265E-2,-5.30824E-3,-3.0008255E-2,-5.0357636E-4,1.0081188E-2,-5.39128E-2,2.48452E-2,5.3661305E-2,-3.5631564E-2,2.5344625E-2,1.4514662E-2,-1.5231068E-2,1.02595575E-2,3.9857384E-2,-1.841454E-2,5.5375405E-2,-6.5862E-2,-4.663248E-2,-2.7628247E-2,4.0517114E-2,-4.322384E-2,-8.937353E-3,-1.8933272E-2,1.562508E-2,-6.022934E-3,2.940751E-2,-3.4156907E-2,-8.955009E-3,5.0840378E-2,-1.762974E-2,-9.385072E-3,3.4213196E-2,6.2485444E-3,-1.5267364E-2,1.4294579E-2,3.374796E-2,-2.2610236E-2,6.6737436E-2,4.754575E-2,7.91066E-3],"categories":[],"categories_nodes":[],"categories_segments":[],"categories_sizes":[],"default_left":[1,1,1,1,1,0,0,1,0,1,0,1,1,1,1,1,1,0,0,1,0,0,1,1,1,1,0,0,0,1,1,0,0,0,0,1,1,1,1,0,0,0,0,0,0,0,1,1,0,0,0,0,1,1,1,1,1,1,0,1,0,1,1,0,0,0,0,0,0,0,0,0,0,0,0,0,0,0,0,0,0,0,0,0,0,0,0,0,0,0,0,0,0,0,0,0,0,0,0,0,0,0,0,0,0,0,0,0,0,0,0,0,0,0,0,0,0,0,0,0,0,0,0,0,0,0,0],"id":5,"left_children":[1,3,5,7,9,11,13,15,17,19,21,23,25,27,29,31,33,35,37,39,41,43,45,47,49,51,53,55,57,59,61,63,65,67,69,71,73,75,77,79,81,83,85,87,89,91,93,95,97,99,101,103,105,107,109,111,113,115,117,119,121,123,125,-1,-1,-1,-1,-1,-1,-1,-1,-1,-1,-1,-1,-1,-1,-1,-1,-1,-1,-1,-1,-1,-1,-1,-1,-1,-1,-1,-1,-1,-1,-1,-1,-1,-1,-1,-1,-1,-1,-1,-1,-1,-1,-1,-1,-1,-1,-1,-1,-1,-1,-1,-1,-1,-1,-1,-1,-1,-1,-1,-1,-1,-1,-1,-1],"loss_changes":[2.6552664E4,7.9137275E3,7.505707E3,4.861384E3,2.5206074E3,2.4481895E3,1.503331E3,2.7920303E3,1.2696184E3,1.2285391E3,5.5118604E2,8.570387E2,1.5097422E3,8.482433E2,3.7066205E2,1.9335337E3,5.404888E2,6.965311E2,7.868191E2,6.7368164E2,2.910869E2,2.5278238E2,1.8012054E2,4.6944556E2,1.028898E2,8.7259766E2,4.3544824E2,7.039894E2,1.8256644E2,3.0521616E2,9.962866E1,1.1170553E3,3.2473828E2,3.7982715E2,1.2675635E2,3.486734E2,2.0777498E2,2.5805225E2,3.116186E2,5.129861E2,1.7224023E2,2.1591406E2,4.90542E1,1.26825806E2,1.4137943E2,9.3457634E1,7.625006E1,3.1706152E2,1.4582529E2,3.704113E1,1.8628067E1,6.803281E2,2.7263483E2,1.9224878E2,1.2999731E2,2.1310141E2,5.0722144E2,2.8983704E1,1.3053253E2,2.052405E2,9.59202E1,2.4719786E1,1.12108826E2,0E0,0E0,0E0,0E0,0E0,0E0,0E0,0E0,0E0,0E0,0E0,0E0,0E0,0E0,0E0,0E0,0E0,0E0,0E0,0E0,0E0,0E0,0E0,0E0,0E0,0E0,0E0,0E0,0E0,0E0,0E0,0E0,0E0,0E0,0E0,0E0,0E0,0E0,0E0,0E0,0E0,0E0,0E0,0E0,0E0,0E0,0E0,0E0,0E0,0E0,0E0,0E0,0E0,0E0,0E0,0E0,0E0,0E0,0E0,0E0,0E0,0E0,0E0,0E0],"parents":[2147483647,0,0,1,1,2,2,3,3,4,4,5,5,6,6,7,7,8,8,9,9,10,10,11,11,12,12,13,13,14,14,15,15,16,16,17,17,18,18,19,19,20,20,21,21,22,22,23,23,24,24,25,25,26,26,27,27,28,28,29,29,30,30,31,31,32,32,33,33,34,34,35,35,36,36,37,37,38,38,39,39,40,40,41,41,42,42,43,43,44,44,45,45,46,46,47,47,48,48,49,49,50,50,51,51,52,52,53,53,54,54,55,55,56,56,57,57,58,58,59,59,60,60,61,61,62,62],"right_children":[2,4,6,8,10,12,14,16,18,20,22,24,26,28,30,32,34,36,38,40,42,44,46,48,50,52,54,56,58,60,62,64,66,68,70,72,74,76,78,80,82,84,86,88,90,92,94,96,98,100,102,104,106,108,110,112,114,116,118,120,122,124,126,-1,-1,-1,-1,-1,-1,-1,-1,-1,-1,-1,-1,-1,-1,-1,-1,-1,-1,-1,-1,-1,-1,-1,-1,-1,-1,-1,-1,-1,-1,-1,-1,-1,-1,-1,-1,-1,-1,-1,-1,-1,-1,-1,-1,-1,-1,-1,-1,-1,-1,-1,-1,-1,-1,-1,-1,-1,-1,-1,-1,-1,-1,-1,-1],"split_conditions":[5E0,8.5E1,8.3E1,1.135E2,1.25E2,1.114E2,9.68E1,2E1,1.0666667E0,2.8E1,1.7511901E0,1.2E0,2.6E1,1.65E1,1.6E0,1.5E0,1.3E0,2.5E-1,1.7511901E0,1.3E0,2.5E1,1.0666667E0,2.8E1,2.4E1,1.65E1,1.4E0,1.8E1,1.14333336E2,1E0,3E1,9.6E1,9.94E1,1.46E1,2.6E1,1.72E1,1.3E0,1.5E0,2.6E1,2E1,1.7E1,1.0615E2,2.5333333E0,9.93E1,9.88E1,9.85E1,1.6840994E1,1.6E0,3E0,1E0,3.5E0,2E0,6.324555E-1,1.9E1,1.4E0,1.5E1,1.7E0,2.8E1,1.63E2,1.5E0,1.25E2,2.4E1,3E0,1.224E2,6.8731606E-3,-1.3953759E-2,1.8464996E-2,4.1153207E-2,2.1380821E-2,4.5465525E-2,3.9804664E-2,5.9607327E-2,-1.8438123E-2,1.4837272E-2,5.976732E-3,3.4732774E-2,-4.961482E-2,-2.5850032E-2,-2.0298468E-2,7.961194E-3,6.277756E-3,2.756518E-2,4.8195716E-2,2.4940073E-2,4.5944314E-2,3.093243E-2,6.0659595E-2,5.0540563E-2,1.788265E-2,-5.30824E-3,-3.0008255E-2,-5.0357636E-4,1.0081188E-2,-5.39128E-2,2.48452E-2,5.3661305E-2,-3.5631564E-2,2.5344625E-2,1.4514662E-2,-1.5231068E-2,1.02595575E-2,3.9857384E-2,-1.841454E-2,5.5375405E-2,-6.5862E-2,-4.663248E-2,-2.7628247E-2,4.0517114E-2,-4.322384E-2,-8.937353E-3,-1.8933272E-2,1.562508E-2,-6.022934E-3,2.940751E-2,-3.4156907E-2,-8.955009E-3,5.0840378E-2,-1.762974E-2,-9.385072E-3,3.4213196E-2,6.2485444E-3,-1.5267364E-2,1.4294579E-2,3.374796E-2,-2.2610236E-2,6.6737436E-2,4.754575E-2,7.91066E-3],"split_indices":[27,1,1,5,5,5,1,11,25,12,28,32,12,34,32,30,30,28,28,30,11,25,12,12,34,30,11,5,37,12,22,21,34,11,34,30,30,12,11,34,20,25,21,21,1,3,30,30,37,32,26,28,34,30,34,30,12,7,30,5,11,30,5,0,0,0,0,0,0,0,0,0,0,0,0,0,0,0,0,0,0,0,0,0,0,0,0,0,0,0,0,0,0,0,0,0,0,0,0,0,0,0,0,0,0,0,0,0,0,0,0,0,0,0,0,0,0,0,0,0,0,0,0,0,0,0,0],"split_type":[0,0,0,0,0,0,0,0,0,0,0,0,0,0,0,0,0,0,0,0,0,0,0,0,0,0,0,0,0,0,0,0,0,0,0,0,0,0,0,0,0,0,0,0,0,0,0,0,0,0,0,0,0,0,0,0,0,0,0,0,0,0,0,0,0,0,0,0,0,0,0,0,0,0,0,0,0,0,0,0,0,0,0,0,0,0,0,0,0,0,0,0,0,0,0,0,0,0,0,0,0,0,0,0,0,0,0,0,0,0,0,0,0,0,0,0,0,0,0,0,0,0,0,0,0,0,0],"sum_hessian":[1.8614558E5,1.2001247E5,6.613312E4,7.315853E4,4.6853934E4,4.060761E4,2.5525506E4,4.9166098E4,2.3992436E4,3.7830184E4,9.023748E3,1.1924315E4,2.8683293E4,1.5629186E4,9.896321E3,3.6608082E4,1.2558019E4,1.2370744E4,1.1621691E4,2.1246736E4,1.6583447E4,4.318894E3,4.704854E3,1.0794178E4,1.1301377E3,2.0579285E4,8.104009E3,1.4415466E4,1.213719E3,8.630196E3,1.2661252E3,3.0246252E4,6.3618276E3,9.280209E3,3.2778093E3,6.93041E3,5.4403335E3,5.0613525E3,6.560339E3,1.6176441E4,5.070295E3,1.163197E4,4.9514785E3,2.45961E3,1.859284E3,2.3965706E3,2.3082837E3,6.021448E3,4.7727295E3,9.122657E2,2.1787201E2,1.8635904E4,1.9433807E3,4.238902E3,3.8651072E3,5.4031543E3,9.0123125E3,5.1654694E2,6.971721E2,5.5716636E3,3.0585327E3,8.957828E1,1.176547E3,2.0953633E4,9.292619E3,2.9049683E3,3.4568594E3,7.156744E3,2.1234648E3,1.5064388E3,1.7713706E3,6.0256343E3,9.0477576E2,4.716519E3,7.238147E2,3.311802E3,1.7495507E3,5.3688506E3,1.191488E3,3.657567E3,1.2518874E4,4.0764646E3,9.938305E2,8.241245E3,3.3907246E3,2.6984536E3,2.2530247E3,9.776247E2,1.4819855E3,1.2605226E3,5.9876154E2,2.3390732E3,5.7497116E1,2.0495706E3,2.5871317E2,5.8008047E3,2.2064357E2,4.5468835E2,4.318041E3,7.909682E2,1.21297516E2,8.46287E0,2.0940913E2,1.0292898E4,8.343005E3,1.7843356E3,1.5904517E2,3.7798164E3,4.5908548E2,3.5712825E3,2.9382477E2,4.9398687E3,4.6328552E2,6.025317E3,2.986995E3,5.010609E2,1.5486043E1,3.9487793E2,3.0229416E2,4.046293E3,1.5253705E3,2.1610295E3,8.975031E2,8.200941E1,7.5688744E0,9.567429E2,2.1980406E2],"tree_param":{"num_deleted":"0","num_feature":"40","num_nodes":"127","size_leaf_vector":"1"}},{"base_weights":[3.6649627E-3,-3.1065676E-1,4.5844367E-1,1.3913973E-1,-5.5069494E-1,6.4342505E-1,6.883011E-2,-2.8533673E-1,2.9854935E-1,1.1277288E-1,-6.667908E-1,3.598876E-1,8.039557E-1,-3.8510624E-1,3.226525E-1,1.2755176E-1,-6.640701E-1,6.5949214E-1,1.2588035E-1,4.164234E-1,-3.0004984E-1,-8.2979405E-1,-2.8402522E-1,8.5472935E-1,2.4400401E-1,6.529036E-1,9.9694693E-1,-3.9608553E-2,-7.234816E-1,1.9519308E-1,8.840816E-1,5.426251E-1,-1.7962803E-1,-8.727697E-1,-1.121799E-1,8.089932E-1,2.717023E-1,-1.1450422E-1,4.187761E-1,2.6746133E-1,1.0239892E0,-6.667625E-1,2.7730176E-2,-3.9041874E-1,-9.46606E-1,1.6302815E-2,-4.4315487E-1,1.1369768E0,6.776253E-1,4.0235293E-1,-2.7489308E-2,9.869137E-1,5.40662E-1,1.2520566E0,9.244687E-1,-9.567987E-2,3.8375035E-1,-9.586973E-1,-2.827246E-1,2.5839964E-2,5.598979E-1,7.945297E-1,1.3091644E0,3.9835107E-2,7.4060033E-3,-2.8958706E-2,7.0460453E-3,-2.177586E-2,-5.504433E-2,7.9439925E-3,-3.0393112E-2,3.6274437E-2,6.2490154E-2,3.0663097E-5,2.435869E-2,7.277718E-4,-2.7780522E-2,2.5338938E-2,-4.9344804E-3,1.6963579E-2,-2.2293737E-2,5.361549E-2,1.0720587E-2,-2.2661509E-2,-6.346073E-2,-3.096647E-3,4.632791E-2,-2.162254E-2,2.2969488E-2,-5.7596426E-2,-3.824543E-2,-4.9289013E-3,1.9914297E-2,-3.0490479E-2,-7.477365E-3,5.8914762E-2,2.7316445E-2,2.7536958E-2,5.0289005E-2,3.737286E-2,1.1133208E-2,-1.800521E-2,8.459454E-3,3.3153895E-2,5.277756E-2,3.0935049E-2,9.11762E-3,5.8094915E-2,7.343243E-2,4.355024E-2,6.1831333E-2,2.3916475E-2,-6.8781017E-3,-3.423726E-2,2.3592481E-2,1.5959615E-3,-5.146135E-2,-3.2361504E-2,-6.4379624E-3,-1.0987318E-2,1.2676418E-2,3.4998316E-2,1.670255E-2,3.2430556E-2,5.251927E-2,6.611993E-2,-6.742256E-2],"categories":[],"categories_nodes":[],"categories_segments":[],"categories_sizes":[],"default_left":[0,0,1,0,0,1,1,1,0,0,0,0,0,1,0,0,1,0,0,1,0,0,0,0,0,0,0,0,1,0,0,0,1,0,0,1,0,1,1,0,0,0,1,1,0,0,0,1,1,0,1,0,1,0,0,0,0,0,0,0,0,0,0,0,0,0,0,0,0,0,0,0,0,0,0,0,0,0,0,0,0,0,0,0,0,0,0,0,0,0,0,0,0,0,0,0,0,0,0,0,0,0,0,0,0,0,0,0,0,0,0,0,0,0,0,0,0,0,0,0,0,0,0,0,0,0,0],"id":6,"left_children":[1,3,5,7,9,11,13,15,17,19,21,23,25,27,29,31,33,35,37,39,41,43,45,47,49,51,53,55,57,59,61,63,65,67,69,71,73,75,77,79,81,83,85,87,89,91,93,95,97,99,101,103,105,107,109,111,113,115,117,119,121,123,125,-1,-1,-1,-1,-1,-1,-1,-1,-1,-1,-1,-1,-1,-1,-1,-1,-1,-1,-1,-1,-1,-1,-1,-1,-1,-1,-1,-1,-1,-1,-1,-1,-1,-1,-1,-1,-1,-1,-1,-1,-1,-1,-1,-1,-1,-1,-1,-1,-1,-1,-1,-1,-1,-1,-1,-1,-1,-1,-1,-1,-1,-1,-1,-1],"loss_changes":[2.6589178E4,1.1875358E4,5.4787383E3,2.5898484E3,5.5241074E3,2.3458887E3,2.8200178E3,1.6341367E3,1.7340315E3,1.3390531E3,3.8079512E3,1.0684321E3,9.587656E2,1.0261405E3,1.1231368E3,6.37635E2,6.276736E2,5.217478E2,1.3252621E3,5.5676013E2,5.442175E2,2.1966328E3,8.712919E2,1.7596729E2,6.492108E2,6.9169385E2,2.6598145E2,1.0315926E2,4.594607E2,7.902216E2,1.0951074E2,2.130686E2,3.6820923E2,3.9398047E2,2.0119104E2,2.3826904E2,1.464196E2,5.88568E2,3.8642236E2,2.534195E2,4.7164673E1,2.7431458E2,1.9279765E2,3.2138574E2,1.2606543E3,2.7716486E2,5.8301733E2,3.2588013E1,9.000745E1,5.9129736E2,3.6404425E2,1.02501465E2,3.863921E2,6.065869E1,1.8675879E2,9.230725E1,4.8167946E1,2.0202002E2,8.659335E1,4.8867712E2,1.2811035E2,8.896936E1,1.9502441E1,0E0,0E0,0E0,0E0,0E0,0E0,0E0,0E0,0E0,0E0,0E0,0E0,0E0,0E0,0E0,0E0,0E0,0E0,0E0,0E0,0E0,0E0,0E0,0E0,0E0,0E0,0E0,0E0,0E0,0E0,0E0,0E0,0E0,0E0,0E0,0E0,0E0,0E0,0E0,0E0,0E0,0E0,0E0,0E0,0E0,0E0,0E0,0E0,0E0,0E0,0E0,0E0,0E0,0E0,0E0,0E0,0E0,0E0,0E0,0E0,0E0,0E0,0E0,0E0],"parents":[2147483647,0,0,1,1,2,2,3,3,4,4,5,5,6,6,7,7,8,8,9,9,10,10,11,11,12,12,13,13,14,14,15,15,16,16,17,17,18,18,19,19,20,20,21,21,22,22,23,23,24,24,25,25,26,26,27,27,28,28,29,29,30,30,31,31,32,32,33,33,34,34,35,35,36,36,37,37,38,38,39,39,40,40,41,41,42,42,43,43,44,44,45,45,46,46,47,47,48,48,49,49,50,50,51,51,52,52,53,53,54,54,55,55,56,56,57,57,58,58,59,59,60,60,61,61,62,62],"right_children":[2,4,6,8,10,12,14,16,18,20,22,24,26,28,30,32,34,36,38,40,42,44,46,48,50,52,54,56,58,60,62,64,66,68,70,72,74,76,78,80,82,84,86,88,90,92,94,96,98,100,102,104,106,108,110,112,114,116,118,120,122,124,126,-1,-1,-1,-1,-1,-1,-1,-1,-1,-1,-1,-1,-1,-1,-1,-1,-1,-1,-1,-1,-1,-1,-1,-1,-1,-1,-1,-1,-1,-1,-1,-1,-1,-1,-1,-1,-1,-1,-1,-1,-1,-1,-1,-1,-1,-1,-1,-1,-1,-1,-1,-1,-1,-1,-1,-1,-1,-1,-1,-1,-1,-1,-1,-1],"split_conditions":[1.14E2,3E0,1.04E2,2.4E1,1E0,7.6E1,7.5E1,9.85E1,1E0,1.27166664E2,8.6E1,1E0,3.06E2,2.6E0,5.64E2,1.15833336E2,9.2E1,1.0615E2,6.324555E-1,1.65E1,2.4E1,9.5E1,1.01E2,9.83E1,2.5333333E0,1E0,1E0,6.12E2,2.5E1,9.5E1,1.11E3,1E0,2.4E1,1.08E2,1E0,1.85E1,4.8E1,1.23E2,1.26E2,1.0615E2,1.0615E2,1.0615E2,2.03E1,1.63E1,7.0373154E-1,1.05E2,5.4E1,1.054E2,1.43E1,9.83E1,6.9166664E1,1.28E1,4.6E0,6.42E2,8.82E2,1E0,2E0,9.74E1,7.042857E1,2.081666E0,1.3533333E2,1.026E2,2.8474718E1,3.9835107E-2,7.4060033E-3,-2.8958706E-2,7.0460453E-3,-2.177586E-2,-5.504433E-2,7.9439925E-3,-3.0393112E-2,3.6274437E-2,6.2490154E-2,3.0663097E-5,2.435869E-2,7.277718E-4,-2.7780522E-2,2.5338938E-2,-4.9344804E-3,1.6963579E-2,-2.2293737E-2,5.361549E-2,1.0720587E-2,-2.2661509E-2,-6.346073E-2,-3.096647E-3,4.632791E-2,-2.162254E-2,2.2969488E-2,-5.7596426E-2,-3.824543E-2,-4.9289013E-3,1.9914297E-2,-3.0490479E-2,-7.477365E-3,5.8914762E-2,2.7316445E-2,2.7536958E-2,5.0289005E-2,3.737286E-2,1.1133208E-2,-1.800521E-2,8.459454E-3,3.3153895E-2,5.277756E-2,3.0935049E-2,9.11762E-3,5.8094915E-2,7.343243E-2,4.355024E-2,6.1831333E-2,2.3916475E-2,-6.8781017E-3,-3.423726E-2,2.3592481E-2,1.5959615E-3,-5.146135E-2,-3.2361504E-2,-6.4379624E-3,-1.0987318E-2,1.2676418E-2,3.4998316E-2,1.670255E-2,3.2430556E-2,5.251927E-2,6.611993E-2,-6.742256E-2],"split_indices":[38,27,6,38,33,1,1,15,33,5,1,33,38,25,38,5,0,20,28,34,38,6,6,20,25,33,33,38,12,1,38,33,12,6,33,34,38,5,5,20,20,20,34,34,28,1,38,5,34,21,0,34,25,38,38,33,39,20,0,28,5,0,3,0,0,0,0,0,0,0,0,0,0,0,0,0,0,0,0,0,0,0,0,0,0,0,0,0,0,0,0,0,0,0,0,0,0,0,0,0,0,0,0,0,0,0,0,0,0,0,0,0,0,0,0,0,0,0,0,0,0,0,0,0,0,0,0],"split_type":[0,0,0,0,0,0,0,0,0,0,0,0,0,0,0,0,0,0,0,0,0,0,0,0,0,0,0,0,0,0,0,0,0,0,0,0,0,0,0,0,0,0,0,0,0,0,0,0,0,0,0,0,0,0,0,0,0,0,0,0,0,0,0,0,0,0,0,0,0,0,0,0,0,0,0,0,0,0,0,0,0,0,0,0,0,0,0,0,0,0,0,0,0,0,0,0,0,0,0,0,0,0,0,0,0,0,0,0,0,0,0,0,0,0,0,0,0,0,0,0,0,0,0,0,0,0,0],"sum_hessian":[1.8600548E5,1.0998756E5,7.601793E4,3.8271945E4,7.171562E4,5.154476E4,2.4473162E4,1.0448598E4,2.7823348E4,1.068019E4,6.1035426E4,1.8634602E4,3.2910164E4,8.776586E3,1.5696576E4,4.9992095E3,5.4493877E3,9.002317E3,1.882103E4,6.153784E3,4.5264062E3,4.2805324E4,1.8230104E4,3.5346582E3,1.5099942E4,1.846343E4,1.4446732E4,4.343143E3,4.4334434E3,1.2793466E4,2.903111E3,2.125876E3,2.8733337E3,3.9536982E3,1.4956892E3,6.4966406E3,2.505677E3,1.0337486E4,8.483544E3,4.9432466E3,1.2105376E3,2.135842E3,2.3905642E3,8.991E3,3.3814324E4,6.314168E3,1.1915936E4,1.360706E3,2.1739521E3,9.536993E3,5.562949E3,4.64198E3,1.382145E4,3.1927126E3,1.125402E4,3.8358782E3,5.0726483E2,2.889988E3,1.5434551E3,8.737309E3,4.056157E3,2.4003086E3,5.0280234E2,1.2924606E3,8.3341547E2,1.2786998E3,1.5946338E3,1.3564928E3,2.5972056E3,9.673703E2,5.283189E2,5.4641826E3,1.0324583E3,1.1100736E3,1.3956033E3,7.9982974E3,2.3391892E3,7.2505083E3,1.2330353E3,4.491609E3,4.516377E2,1.1420483E3,6.848923E1,1.5782142E3,5.5762775E2,2.1745698E3,2.1599438E2,8.567726E3,4.2327402E2,1.587258E4,1.7941742E4,4.8548276E3,1.4593402E3,7.6006504E3,4.3152856E3,1.2708123E3,8.989378E1,1.5696866E3,6.042654E2,3.2643784E3,6.272615E3,2.0668096E3,3.4961396E3,8.136754E2,3.8283044E3,1.1348949E4,2.4725017E3,2.258823E3,9.338898E2,9.611611E3,1.6424081E3,2.601407E2,3.5757375E3,3.812313E1,4.691417E2,1.9212125E2,2.697867E3,4.5739377E2,1.0860613E3,4.2034604E3,4.533848E3,2.5022085E3,1.5539485E3,1.5308024E3,8.6950635E2,5.0081088E2,1.9914755E0],"tree_param":{"num_deleted":"0","num_feature":"40","num_nodes":"127","size_leaf_vector":"1"}},{"base_weights":[7.761324E-5,2.5658646E-1,-4.6651185E-1,8.1670046E-2,6.596596E-1,-6.624445E-1,1.8169528E-2,2.2782433E-1,-2.6788673E-1,7.879946E-1,2.66399E-1,-2.7505484E-1,-8.204547E-1,-1.3471623E-1,3.5037965E-1,5.0957926E-2,4.963838E-1,-4.8647827E-1,-4.9313772E-2,6.9682705E-1,1.0379786E0,4.6641886E-2,4.5446086E-1,-3.4791955E-1,7.3103464E-1,-9.851365E-1,-4.6489146E-1,-2.0724359E-1,4.3808466E-1,2.1467681E-1,6.423165E-1,-4.587873E-2,5.18143E-1,4.0408704E-1,7.973346E-1,-2.6643172E-1,-7.648355E-1,2.1308292E-1,-2.6326358E-1,5.7505316E-1,9.1164577E-1,1.0977575E0,8.077569E-1,-3.5533182E-2,7.0296454E-1,4.0362632E-1,9.636519E-1,-4.8814127E-1,-4.6117425E-2,1.0658195E0,4.7457692E-1,-1.0487242E0,-3.972342E-1,-5.257926E-1,4.9953938E-1,-3.2176456E-1,1.1333062E-1,2.0635626E-1,9.185948E-1,-2.9046625E-1,2.8273204E-1,5.842262E-1,1.0735502E0,-1.7672187E-2,3.3122555E-3,1.1890334E-2,3.6281433E-2,2.6458664E-2,1.013085E-2,1.9945132E-2,4.476477E-2,-1.7169219E-2,2.432677E-2,-3.0629763E-2,-5.3244855E-2,1.5888129E-3,2.1596974E-2,-1.7438002E-2,1.3820677E-2,2.2042355E-2,3.6792703E-2,4.1961264E-2,5.6117084E-2,4.8565887E-2,5.95393E-2,3.6523584E-2,5.7290316E-2,4.757484E-3,-1.9419549E-2,4.2665195E-2,1.7017653E-2,1.013576E-2,2.6131481E-2,1.2074332E-2,5.2206874E-2,4.6086605E-3,-2.7822668E-2,-5.2573318E-3,2.7812764E-2,4.5201413E-2,6.369229E-2,8.7747155E-3,4.591952E-2,-6.0625114E-2,-4.274857E-2,-2.6467482E-2,2.6038233E-2,-3.1488296E-2,-5.548619E-3,8.723205E-3,3.9630488E-2,-4.335017E-3,-2.5377825E-2,-1.3880595E-2,9.329449E-3,1.8131573E-2,-2.082033E-2,3.376962E-2,6.446005E-2,9.992026E-3,-3.4308128E-2,3.3271983E-2,9.60302E-3,3.025809E-2,-2.885193E-2,-5.668503E-2,5.455133E-2],"categories":[],"categories_nodes":[],"categories_segments":[],"categories_sizes":[],"default_left":[1,1,1,1,1,0,0,1,0,1,0,1,1,1,0,1,1,0,0,0,0,1,1,1,0,1,1,0,1,1,1,0,0,0,1,1,0,1,1,1,0,0,0,0,0,1,0,0,1,0,0,0,1,0,0,0,0,1,0,0,0,1,0,0,0,0,0,0,0,0,0,0,0,0,0,0,0,0,0,0,0,0,0,0,0,0,0,0,0,0,0,0,0,0,0,0,0,0,0,0,0,0,0,0,0,0,0,0,0,0,0,0,0,0,0,0,0,0,0,0,0,0,0,0,0,0,0],"id":7,"left_children":[1,3,5,7,9,11,13,15,17,19,21,23,25,27,29,31,33,35,37,39,41,43,45,47,49,51,53,55,57,59,61,63,65,67,69,71,73,75,77,79,81,83,85,87,89,91,93,95,97,99,101,103,105,107,109,111,113,115,117,119,121,123,125,-1,-1,-1,-1,-1,-1,-1,-1,-1,-1,-1,-1,-1,-1,-1,-1,-1,-1,-1,-1,-1,-1,-1,-1,-1,-1,-1,-1,-1,-1,-1,-1,-1,-1,-1,-1,-1,-1,-1,-1,-1,-1,-1,-1,-1,-1,-1,-1,-1,-1,-1,-1,-1,-1,-1,-1,-1,-1,-1,-1,-1,-1,-1,-1],"loss_changes":[2.2161344E4,8.4238E3,6.237747E3,4.2569805E3,1.8246562E3,2.8629824E3,9.604908E2,2.7908801E3,1.173757E3,6.2056836E2,3.67713E2,9.938093E2,1.9449395E3,5.381215E2,2.3598041E2,1.6027773E3,6.47729E2,7.521494E2,6.897485E2,5.2211523E2,9.9345215E1,2.2138489E2,1.2371759E2,5.3482825E2,7.8105804E1,8.484043E2,6.1807715E2,4.2208624E2,1.6191687E2,1.400082E2,4.6738403E1,1.0120211E3,3.536255E2,4.499065E2,2.133269E2,3.977452E2,2.4705322E2,2.1895944E2,3.1236722E2,2.749048E2,1.0932324E2,6.681885E1,3.848474E1,1.6828166E2,2.4609177E1,1.04164795E2,2.5002533E1,3.4213086E2,1.4265747E2,1.2188232E1,6.889531E1,6.4913086E2,2.6925186E2,4.2667822E2,5.943268E1,3.698875E2,8.673343E1,9.58656E1,4.1795807E1,9.399104E1,1.243616E2,4.0914185E1,9.84964E0,0E0,0E0,0E0,0E0,0E0,0E0,0E0,0E0,0E0,0E0,0E0,0E0,0E0,0E0,0E0,0E0,0E0,0E0,0E0,0E0,0E0,0E0,0E0,0E0,0E0,0E0,0E0,0E0,0E0,0E0,0E0,0E0,0E0,0E0,0E0,0E0,0E0,0E0,0E0,0E0,0E0,0E0,0E0,0E0,0E0,0E0,0E0,0E0,0E0,0E0,0E0,0E0,0E0,0E0,0E0,0E0,0E0,0E0,0E0,0E0,0E0,0E0,0E0,0E0],"parents":[2147483647,0,0,1,1,2,2,3,3,4,4,5,5,6,6,7,7,8,8,9,9,10,10,11,11,12,12,13,13,14,14,15,15,16,16,17,17,18,18,19,19,20,20,21,21,22,22,23,23,24,24,25,25,26,26,27,27,28,28,29,29,30,30,31,31,32,32,33,33,34,34,35,35,36,36,37,37,38,38,39,39,40,40,41,41,42,42,43,43,44,44,45,45,46,46,47,47,48,48,49,49,50,50,51,51,52,52,53,53,54,54,55,55,56,56,57,57,58,58,59,59,60,60,61,61,62,62],"right_children":[2,4,6,8,10,12,14,16,18,20,22,24,26,28,30,32,34,36,38,40,42,44,46,48,50,52,54,56,58,60,62,64,66,68,70,72,74,76,78,80,82,84,86,88,90,92,94,96,98,100,102,104,106,108,110,112,114,116,118,120,122,124,126,-1,-1,-1,-1,-1,-1,-1,-1,-1,-1,-1,-1,-1,-1,-1,-1,-1,-1,-1,-1,-1,-1,-1,-1,-1,-1,-1,-1,-1,-1,-1,-1,-1,-1,-1,-1,-1,-1,-1,-1,-1,-1,-1,-1,-1,-1,-1,-1,-1,-1,-1,-1,-1,-1,-1,-1,-1,-1,-1,-1,-1,-1,-1,-1],"split_conditions":[5E0,2.35E1,2.1833334E1,1.162E2,1.19166664E2,1.104E2,1.02E2,8.9166664E1,1.7511901E0,1.3E0,1.7511901E0,1.65E1,8.8833336E1,2E-1,2.75E1,1.5E0,1.3E0,1.0666667E0,2E0,2.8E1,2.1230002E2,1.4E0,2E0,9.05E1,8.22E1,1.4E0,1.8E1,2.6166666E1,1.45E1,9.73E1,1.5E0,1.62E1,1.36E1,9.92E1,9.6E1,1.7E0,2.4041631E0,8.757143E1,1.04166664E2,9.3333336E1,3E1,1.72E1,3.1285715E1,1.6970563E0,1.266228E0,8.96E1,7.35E1,1E0,1.8E0,1.7E0,1.8E0,6.324555E-1,1.64E1,1.075E2,2.22E1,1.186E2,7.6833336E1,1.2983333E2,1.5E0,1.01E2,1E0,1.5683333E2,1.02333336E2,-1.7672187E-2,3.3122555E-3,1.1890334E-2,3.6281433E-2,2.6458664E-2,1.013085E-2,1.9945132E-2,4.476477E-2,-1.7169219E-2,2.432677E-2,-3.0629763E-2,-5.3244855E-2,1.5888129E-3,2.1596974E-2,-1.7438002E-2,1.3820677E-2,2.2042355E-2,3.6792703E-2,4.1961264E-2,5.6117084E-2,4.8565887E-2,5.95393E-2,3.6523584E-2,5.7290316E-2,4.757484E-3,-1.9419549E-2,4.2665195E-2,1.7017653E-2,1.013576E-2,2.6131481E-2,1.2074332E-2,5.2206874E-2,4.6086605E-3,-2.7822668E-2,-5.2573318E-3,2.7812764E-2,4.5201413E-2,6.369229E-2,8.7747155E-3,4.591952E-2,-6.0625114E-2,-4.274857E-2,-2.6467482E-2,2.6038233E-2,-3.1488296E-2,-5.548619E-3,8.723205E-3,3.9630488E-2,-4.335017E-3,-2.5377825E-2,-1.3880595E-2,9.329449E-3,1.8131573E-2,-2.082033E-2,3.376962E-2,6.446005E-2,9.992026E-3,-3.4308128E-2,3.3271983E-2,9.60302E-3,3.025809E-2,-2.885193E-2,-5.668503E-2,5.455133E-2],"split_indices":[27,10,10,5,5,5,0,0,28,30,28,34,0,36,10,30,30,25,26,10,20,30,30,0,36,30,34,10,34,21,30,34,34,21,22,30,23,0,0,0,11,34,10,23,23,0,0,33,30,36,30,28,34,0,34,5,0,5,36,6,33,5,0,0,0,0,0,0,0,0,0,0,0,0,0,0,0,0,0,0,0,0,0,0,0,0,0,0,0,0,0,0,0,0,0,0,0,0,0,0,0,0,0,0,0,0,0,0,0,0,0,0,0,0,0,0,0,0,0,0,0,0,0,0,0,0,0],"split_type":[0,0,0,0,0,0,0,0,0,0,0,0,0,0,0,0,0,0,0,0,0,0,0,0,0,0,0,0,0,0,0,0,0,0,0,0,0,0,0,0,0,0,0,0,0,0,0,0,0,0,0,0,0,0,0,0,0,0,0,0,0,0,0,0,0,0,0,0,0,0,0,0,0,0,0,0,0,0,0,0,0,0,0,0,0,0,0,0,0,0,0,0,0,0,0,0,0,0,0,0,0,0,0,0,0,0,0,0,0,0,0,0,0,0,0,0,0,0,0,0,0,0,0,0,0,0,0],"sum_hessian":[1.8516295E5,1.1947932E5,6.568364E4,8.332225E4,3.6157074E4,4.6774617E4,1.890902E4,5.8755957E4,2.4566291E4,2.726012E4,8.896956E3,1.3552082E4,3.3222535E4,1.2949945E4,5.959074E3,3.5426293E4,2.3329662E4,1.228201E4,1.2284281E4,1.9978045E4,7.2820737E3,4.1033228E3,4.793633E3,1.2637483E4,9.1459894E2,2.2704848E4,1.0517689E4,1.1495089E4,1.4548562E3,4.0692666E3,1.8898074E3,2.9344715E4,6.0815786E3,1.7855893E4,5.47377E3,6.860563E3,5.421447E3,5.517455E3,6.766826E3,1.2752649E4,7.2253945E3,5.778005E3,1.5040688E3,3.6475732E3,4.557496E2,4.360136E3,4.334966E2,8.628115E3,4.0093674E3,3.9534808E2,5.1925085E2,2.0488068E4,2.2167786E3,9.893403E3,6.2428613E2,8.469476E3,3.0256138E3,9.8247986E2,4.7237637E2,4.827517E2,3.586515E3,1.6675333E3,2.22274E2,7.8391436E3,2.1505572E4,2.587595E3,3.4939836E3,1.1015254E4,6.840638E3,1.081223E3,4.392547E3,6.224925E3,6.3563837E2,3.5986606E3,1.8227859E3,3.018223E3,2.4992322E3,5.841725E3,9.251013E2,6.9531875E3,5.7994624E3,5.380863E3,1.8445319E3,2.45404E3,3.3239648E3,1.2267653E3,2.7730365E2,2.6623042E3,9.85269E2,3.2121863E2,1.3453098E2,1.6229095E3,2.7372268E3,4.386989E1,3.896267E2,9.086597E2,7.719456E3,3.6522888E3,3.5707874E2,2.2539453E2,1.6995354E2,3.110392E2,2.0821164E2,1.1100025E4,9.388044E3,1.9382548E3,2.78524E2,7.9102153E3,1.9831876E3,2.9673798E2,3.2754813E2,3.7395981E3,4.7298774E3,4.770503E2,2.5485635E3,7.857281E2,1.9675172E2,2.8691614E2,1.8546024E2,2.1582196E2,2.6692975E2,6.8575134E2,2.9007637E3,1.6384734E3,2.9059965E1,1.2443395E0,2.2102966E2],"tree_param":{"num_deleted":"0","num_feature":"40","num_nodes":"127","size_leaf_vector":"1"}},{"base_weights":[-1.027068E-4,-2.8153533E-1,4.3350008E-1,1.2736212E-1,-5.0347763E-1,1.4066926E-1,6.374484E-1,-1.2190155E-1,4.662712E-1,-6.6626734E-1,-7.868982E-2,3.902028E-1,-2.0079657E-1,7.632603E-1,2.966902E-1,-5.442149E-1,1.2175904E-1,5.5485547E-1,-1.4821278E-1,-2.6702642E-1,-8.1882304E-1,-1.9317374E-1,5.771844E-1,2.9512423E-1,1.0196236E0,-1.0551253E-2,-6.514615E-1,6.4742064E-1,9.904512E-1,1.785001E-1,8.456762E-1,-1.11432314E-1,-7.977678E-1,1.8208252E-2,6.0756433E-1,4.3927038E-1,9.0441304E-1,-3.800052E-1,2.4907567E-1,-3.804388E-1,4.2394626E-1,-8.5587174E-1,3.0032587E-1,-3.3602294E-1,1.0431773E-1,6.721897E-1,-1.0109239E-1,6.9409597E-1,1.9528379E-1,1.1664736E0,8.052467E-1,-5.2259933E-2,7.385296E-1,-8.9714533E-1,-1.9618289E-1,5.630192E-1,9.9393624E-1,9.279132E-1,1.2592812E0,3.9939735E-2,5.425616E-1,6.946164E-1,1.121485E0,-1.61921E-2,2.3477124E-2,-4.6060592E-2,-1.3269758E-3,-9.099806E-3,1.3025892E-2,3.8649444E-2,1.0198441E-2,1.1553594E-2,3.330883E-2,5.0660666E-2,2.9644215E-2,-2.4555195E-2,8.446398E-3,5.804799E-3,3.3397928E-2,-2.154677E-2,2.7468283E-2,1.5409514E-2,5.2836448E-2,-4.7533758E-2,-2.365595E-2,3.1893526E-3,4.0782087E-2,1.3138916E-3,-2.3142738E-2,2.930288E-3,3.313114E-2,3.8342364E-2,3.561789E-3,-1.3242987E-2,4.268237E-2,4.4871744E-2,2.1480583E-2,-1.3647034E-2,1.3952225E-2,5.8930513E-2,-2.263012E-3,2.6893383E-2,5.302561E-2,-6.799104E-3,1.5240497E-2,2.1907318E-2,4.3139845E-2,-4.8511457E-2,1.3745147E-2,-1.2777676E-2,6.1844345E-2,2.37637E-2,4.1532215E-2,4.341565E-2,5.8481153E-2,4.29813E-2,6.1850943E-2,5.7075758E-2,7.003181E-2,-1.7537111E-3,3.303432E-2,2.297653E-2,5.0866276E-2,7.4718655E-3,4.0815245E-2,4.777744E-2,7.343699E-2],"categories":[],"categories_nodes":[],"categories_segments":[],"categories_sizes":[],"default_left":[0,0,1,0,1,1,1,0,1,0,1,1,1,0,0,0,1,1,0,1,1,0,0,0,0,1,1,1,1,0,0,1,1,0,0,0,0,1,1,1,1,0,0,0,1,1,1,0,1,0,0,0,0,0,0,1,0,1,0,1,1,0,0,0,0,0,0,0,0,0,0,0,0,0,0,0,0,0,0,0,0,0,0,0,0,0,0,0,0,0,0,0,0,0,0,0,0,0,0,0,0,0,0,0,0,0,0,0,0,0,0,0,0,0,0,0,0,0,0,0,0,0,0,0,0,0,0],"id":8,"left_children":[1,3,5,7,9,11,13,15,17,19,21,23,25,27,29,31,33,35,37,39,41,43,45,47,49,51,53,55,57,59,61,63,65,67,69,71,73,75,77,79,81,83,85,87,89,91,93,95,97,99,101,103,105,107,109,111,113,115,117,119,121,123,125,-1,-1,-1,-1,-1,-1,-1,-1,-1,-1,-1,-1,-1,-1,-1,-1,-1,-1,-1,-1,-1,-1,-1,-1,-1,-1,-1,-1,-1,-1,-1,-1,-1,-1,-1,-1,-1,-1,-1,-1,-1,-1,-1,-1,-1,-1,-1,-1,-1,-1,-1,-1,-1,-1,-1,-1,-1,-1,-1,-1,-1,-1,-1,-1],"loss_changes":[2.253789E4,1.0164093E4,4.3413193E3,3.3288232E3,5.0199844E3,2.5430723E3,1.8367852E3,2.3365068E3,9.090908E2,3.1962969E3,1.510397E3,1.031656E3,1.080435E3,8.229531E2,7.496622E2,9.115242E2,7.243457E2,5.893154E2,1.9392773E2,1.1373406E3,1.5746914E3,7.2780347E2,1.927038E2,5.966665E2,7.028955E1,2.7692096E2,4.1823425E2,6.0569727E2,1.7646777E2,4.797152E2,8.450195E1,3.790309E2,4.9868213E2,5.7588916E2,1.6875165E2,5.181128E2,1.2229883E2,8.117528E1,4.3157066E1,5.855338E2,1.4957468E2,1.3332734E3,1.4835175E2,5.316708E2,1.4176604E2,1.491112E2,5.778751E1,1.6087012E2,4.7011298E2,1.9767822E1,6.2429504E1,2.510276E2,1.7072113E1,2.0835498E2,1.1197493E2,3.9109668E2,8.856372E1,1.7995361E2,3.1550049E1,3.2083273E2,1.0287811E2,8.77923E1,4.0241455E1,0E0,0E0,0E0,0E0,0E0,0E0,0E0,0E0,0E0,0E0,0E0,0E0,0E0,0E0,0E0,0E0,0E0,0E0,0E0,0E0,0E0,0E0,0E0,0E0,0E0,0E0,0E0,0E0,0E0,0E0,0E0,0E0,0E0,0E0,0E0,0E0,0E0,0E0,0E0,0E0,0E0,0E0,0E0,0E0,0E0,0E0,0E0,0E0,0E0,0E0,0E0,0E0,0E0,0E0,0E0,0E0,0E0,0E0,0E0,0E0,0E0,0E0,0E0,0E0],"parents":[2147483647,0,0,1,1,2,2,3,3,4,4,5,5,6,6,7,7,8,8,9,9,10,10,11,11,12,12,13,13,14,14,15,15,16,16,17,17,18,18,19,19,20,20,21,21,22,22,23,23,24,24,25,25,26,26,27,27,28,28,29,29,30,30,31,31,32,32,33,33,34,34,35,35,36,36,37,37,38,38,39,39,40,40,41,41,42,42,43,43,44,44,45,45,46,46,47,47,48,48,49,49,50,50,51,51,52,52,53,53,54,54,55,55,56,56,57,57,58,58,59,59,60,60,61,61,62,62],"right_children":[2,4,6,8,10,12,14,16,18,20,22,24,26,28,30,32,34,36,38,40,42,44,46,48,50,52,54,56,58,60,62,64,66,68,70,72,74,76,78,80,82,84,86,88,90,92,94,96,98,100,102,104,106,108,110,112,114,116,118,120,122,124,126,-1,-1,-1,-1,-1,-1,-1,-1,-1,-1,-1,-1,-1,-1,-1,-1,-1,-1,-1,-1,-1,-1,-1,-1,-1,-1,-1,-1,-1,-1,-1,-1,-1,-1,-1,-1,-1,-1,-1,-1,-1,-1,-1,-1,-1,-1,-1,-1,-1,-1,-1,-1,-1,-1,-1,-1,-1,-1,-1,-1,-1,-1,-1,-1],"split_conditions":[1.2E2,3E0,7.8E1,2.0666666E1,2.1833334E1,1.09E2,1.2E2,3E1,1.27666664E2,1.09666664E2,1.3E0,1.3E0,4.125E0,3.9E2,5.88E2,1.18833336E2,1.3E0,1.6E0,7.367884E-1,1.1E0,1.9E1,2.5833334E1,1.0615E2,9.78E1,9.88E1,9E-1,2.0333334E1,1.1E0,1.3E1,9.8E1,8.82E2,1.2E0,9.3E1,7.367884E-1,1.0615E2,6.324555E-1,1.0615E2,1.2E0,1.1E0,1.65E1,1.85E1,8.9E1,2.59E1,1.0825E2,1.8E0,1.2983333E2,2.9E0,1.5454545E0,5.7E1,1.11E3,1.9E0,4.86E2,1.2E0,5.64E2,7.62E2,2.6E1,2E0,2.8333334E1,6.42E2,1.3E0,1.2E0,1.9166666E1,5E0,-1.61921E-2,2.3477124E-2,-4.6060592E-2,-1.3269758E-3,-9.099806E-3,1.3025892E-2,3.8649444E-2,1.0198441E-2,1.1553594E-2,3.330883E-2,5.0660666E-2,2.9644215E-2,-2.4555195E-2,8.446398E-3,5.804799E-3,3.3397928E-2,-2.154677E-2,2.7468283E-2,1.5409514E-2,5.2836448E-2,-4.7533758E-2,-2.365595E-2,3.1893526E-3,4.0782087E-2,1.3138916E-3,-2.3142738E-2,2.930288E-3,3.313114E-2,3.8342364E-2,3.561789E-3,-1.3242987E-2,4.268237E-2,4.4871744E-2,2.1480583E-2,-1.3647034E-2,1.3952225E-2,5.8930513E-2,-2.263012E-3,2.6893383E-2,5.302561E-2,-6.799104E-3,1.5240497E-2,2.1907318E-2,4.3139845E-2,-4.8511457E-2,1.3745147E-2,-1.2777676E-2,6.1844345E-2,2.37637E-2,4.1532215E-2,4.341565E-2,5.8481153E-2,4.29813E-2,6.1850943E-2,5.7075758E-2,7.003181E-2,-1.7537111E-3,3.303432E-2,2.297653E-2,5.0866276E-2,7.4718655E-3,4.0815245E-2,4.777744E-2,7.343699E-2],"split_indices":[38,27,1,10,10,5,5,38,5,5,32,32,25,38,38,5,32,30,28,32,34,10,20,21,21,32,10,32,34,1,38,30,1,28,20,28,20,30,30,34,34,1,34,5,30,5,30,25,1,38,32,38,32,38,38,10,32,10,38,30,30,10,27,0,0,0,0,0,0,0,0,0,0,0,0,0,0,0,0,0,0,0,0,0,0,0,0,0,0,0,0,0,0,0,0,0,0,0,0,0,0,0,0,0,0,0,0,0,0,0,0,0,0,0,0,0,0,0,0,0,0,0,0,0,0,0,0],"split_type":[0,0,0,0,0,0,0,0,0,0,0,0,0,0,0,0,0,0,0,0,0,0,0,0,0,0,0,0,0,0,0,0,0,0,0,0,0,0,0,0,0,0,0,0,0,0,0,0,0,0,0,0,0,0,0,0,0,0,0,0,0,0,0,0,0,0,0,0,0,0,0,0,0,0,0,0,0,0,0,0,0,0,0,0,0,0,0,0,0,0,0,0,0,0,0,0,0,0,0,0,0,0,0,0,0,0,0,0,0,0,0,0,0,0,0,0,0,0,0,0,0,0,0,0,0,0,0],"sum_hessian":[1.8468945E5,1.1199727E5,7.269218E4,3.940308E4,7.259419E4,2.9843828E4,4.284835E4,2.2704688E4,1.6698393E4,5.2481395E4,2.0112795E4,1.7242994E4,1.2600834E4,3.1293268E4,1.1555084E4,8.306537E3,1.439815E4,1.4594534E4,2.1038574E3,1.4510343E4,3.7971055E4,1.7124406E4,2.988388E3,1.4981412E4,2.261582E3,8.861171E3,3.7396633E3,2.0728238E4,1.056503E4,9.509193E3,2.04589E3,3.0692156E3,5.2373213E3,1.1869229E4,2.5289226E3,1.0969578E4,3.624956E3,1.3286932E3,7.751641E2,1.2464877E4,2.0454656E3,3.6754555E4,1.2165002E3,1.1569058E4,5.55535E3,2.621243E3,3.6714517E2,2.997434E3,1.1983979E4,1.3395424E3,9.2203973E2,8.394687E3,4.6648428E2,2.4282996E3,1.3113638E3,1.6670418E4,4.0578188E3,8.574738E3,1.9902924E3,6.888549E3,2.620645E3,1.324166E3,7.2172394E2,2.2478308E3,8.213847E2,4.514525E3,7.2279626E2,6.499429E3,5.3697993E3,1.7930693E3,7.358533E2,5.7216655E3,5.247913E3,2.684984E3,9.3997205E2,1.105131E3,2.2356227E2,5.8934595E2,1.858182E2,1.1823304E4,6.415731E2,1.7304065E3,3.150591E2,2.9456934E4,7.2976187E3,8.3455084E2,3.8194943E2,3.0000554E3,8.569002E3,5.135943E3,4.1940717E2,2.2643105E3,3.5693237E2,3.14006E2,5.3139145E1,1.6932496E3,1.3041844E3,1.8181605E3,1.0165817E4,1.3262858E3,1.3256577E1,4.5185214E2,4.701876E2,6.8007373E3,1.5939492E3,1.3783365E2,3.2865063E2,2.2859312E3,1.4236841E2,1.2599856E3,5.137824E1,1.2556383E4,4.1140356E3,2.3694832E3,1.6883357E3,7.026282E3,1.5484557E3,1.0906892E3,8.9960315E2,6.1466963E3,7.418523E2,2.2322217E3,3.8842313E2,2.420375E2,1.0821285E3,4.9089883E2,2.3082512E2],"tree_param":{"num_deleted":"0","num_feature":"40","num_nodes":"127","size_leaf_vector":"1"}},{"base_weights":[-4.3563898E-5,-2.6390135E-1,4.292813E-1,1.2948099E-1,-4.8193684E-1,6.0321176E-1,1.0691349E-1,-1.060278E-1,4.4640094E-1,-5.86195E-1,1.16685614E-1,3.21689E-1,7.461359E-1,-1.9458005E-1,3.757416E-1,-5.184676E-1,1.2204235E-1,5.337922E-1,-1.1052494E-1,-7.033448E-1,-1.2907046E-1,2.575884E-1,-6.0348433E-1,2.2910658E-1,9.379223E-1,5.903481E-1,9.200532E-1,-3.7233815E-2,-6.0254884E-1,2.644079E-1,8.431383E-1,-1.2086524E-1,-7.726835E-1,7.877726E-4,5.224618E-1,4.1155007E-1,8.2502943E-1,-3.1445706E-1,2.4287234E-1,-3.6812776E-1,-8.364404E-1,-3.0810195E-1,3.897117E-2,1.4383204E-1,9.194429E-1,-8.08434E-1,-5.464251E-2,6.016844E-1,1.3417822E-1,1.1421518E0,7.612932E-1,5.2388704E-1,1.0432032E0,8.702147E-1,1.2871032E0,-1.0391232E-1,4.321049E-1,-8.569988E-1,-1.5603358E-1,8.310382E-2,5.0977564E-1,7.643062E-1,1.2269095E0,-2.0479787E-2,1.342152E-2,-4.4689555E-2,-1.0617268E-3,-9.447101E-3,1.1782056E-2,2.2383804E-2,5.733146E-2,1.030172E-2,3.1651884E-2,3.2647487E-2,5.013019E-2,-2.17664E-2,1.2819149E-2,6.25882E-3,3.3262875E-2,-2.2844259E-2,5.5590477E-3,-5.3177435E-2,-3.2728557E-2,-1.8494483E-2,1.6678376E-2,1.1435701E-2,-4.6941605E-3,2.1855345E-2,-5.075111E-3,3.7749138E-2,5.824271E-2,-5.1535722E-2,-1.0649766E-2,-1.2565546E-2,3.0555129E-2,4.291315E-2,1.4568686E-2,-1.0516667E-2,1.2443948E-2,5.7901572E-2,-5.2288543E-2,2.7149057E-2,5.1249225E-2,3.088515E-2,1.1831655E-2,4.2264204E-2,5.6086626E-2,4.413406E-2,-2.7327104E-2,5.994874E-2,7.3264875E-2,-1.4081608E-2,3.5962095E-3,1.82399E-3,2.9797971E-2,-4.7086447E-2,1.92276E-2,-3.923843E-2,2.0241628E-4,-4.6667192E-4,2.9007351E-2,2.122681E-2,4.2681932E-2,2.4074113E-2,4.3053117E-2,6.34792E-2,9.484037E-3],"categories":[],"categories_nodes":[],"categories_segments":[],"categories_sizes":[],"default_left":[0,0,1,0,1,1,1,0,1,1,0,1,0,1,0,0,1,1,0,0,0,1,1,0,0,1,1,1,1,0,0,1,1,0,1,0,0,1,1,0,0,1,0,0,0,0,1,0,1,0,0,1,0,0,0,0,0,0,0,1,1,1,1,0,0,0,0,0,0,0,0,0,0,0,0,0,0,0,0,0,0,0,0,0,0,0,0,0,0,0,0,0,0,0,0,0,0,0,0,0,0,0,0,0,0,0,0,0,0,0,0,0,0,0,0,0,0,0,0,0,0,0,0,0,0,0,0],"id":9,"left_children":[1,3,5,7,9,11,13,15,17,19,21,23,25,27,29,31,33,35,37,39,41,43,45,47,49,51,53,55,57,59,61,63,65,67,69,71,73,75,77,79,81,83,85,87,89,91,93,95,97,99,101,103,105,107,109,111,113,115,117,119,121,123,125,-1,-1,-1,-1,-1,-1,-1,-1,-1,-1,-1,-1,-1,-1,-1,-1,-1,-1,-1,-1,-1,-1,-1,-1,-1,-1,-1,-1,-1,-1,-1,-1,-1,-1,-1,-1,-1,-1,-1,-1,-1,-1,-1,-1,-1,-1,-1,-1,-1,-1,-1,-1,-1,-1,-1,-1,-1,-1,-1,-1,-1,-1,-1,-1],"loss_changes":[2.0855992E4,9.780434E3,3.9293203E3,3.0351084E3,4.5788965E3,1.8313281E3,1.990766E3,2.1945256E3,8.4380566E2,3.3460176E3,1.1045074E3,8.7438513E2,8.1746875E2,7.431924E2,6.7544495E2,8.395664E2,7.294075E2,5.331387E2,1.6959473E2,2.2187383E3,3.8351984E2,6.852293E2,2.0031073E2,4.713346E2,7.134778E1,4.7885938E2,2.5981055E2,2.6155902E2,3.6598926E2,4.6652673E2,7.4618164E1,3.644097E2,4.611172E2,5.139025E2,1.6248224E2,4.8039734E2,1.3468628E2,1.0305115E2,4.2731754E1,6.0147266E2,1.4697539E3,2.4482953E2,1.6580302E2,5.5902856E2,5.299829E1,1.7141931E2,6.3702023E1,2.1521185E2,4.1985297E2,3.339917E1,6.14162E1,3.7423096E2,3.0719727E1,2.2234668E2,2.4989258E1,2.286977E2,6.737723E1,2.1627734E2,1.1786077E2,2.771725E2,1.3025818E2,5.6353638E1,1.8523743E1,0E0,0E0,0E0,0E0,0E0,0E0,0E0,0E0,0E0,0E0,0E0,0E0,0E0,0E0,0E0,0E0,0E0,0E0,0E0,0E0,0E0,0E0,0E0,0E0,0E0,0E0,0E0,0E0,0E0,0E0,0E0,0E0,0E0,0E0,0E0,0E0,0E0,0E0,0E0,0E0,0E0,0E0,0E0,0E0,0E0,0E0,0E0,0E0,0E0,0E0,0E0,0E0,0E0,0E0,0E0,0E0,0E0,0E0,0E0,0E0,0E0,0E0,0E0,0E0],"parents":[2147483647,0,0,1,1,2,2,3,3,4,4,5,5,6,6,7,7,8,8,9,9,10,10,11,11,12,12,13,13,14,14,15,15,16,16,17,17,18,18,19,19,20,20,21,21,22,22,23,23,24,24,25,25,26,26,27,27,28,28,29,29,30,30,31,31,32,32,33,33,34,34,35,35,36,36,37,37,38,38,39,39,40,40,41,41,42,42,43,43,44,44,45,45,46,46,47,47,48,48,49,49,50,50,51,51,52,52,53,53,54,54,55,55,56,56,57,57,58,58,59,59,60,60,61,61,62,62],"right_children":[2,4,6,8,10,12,14,16,18,20,22,24,26,28,30,32,34,36,38,40,42,44,46,48,50,52,54,56,58,60,62,64,66,68,70,72,74,76,78,80,82,84,86,88,90,92,94,96,98,100,102,104,106,108,110,112,114,116,118,120,122,124,126,-1,-1,-1,-1,-1,-1,-1,-1,-1,-1,-1,-1,-1,-1,-1,-1,-1,-1,-1,-1,-1,-1,-1,-1,-1,-1,-1,-1,-1,-1,-1,-1,-1,-1,-1,-1,-1,-1,-1,-1,-1,-1,-1,-1,-1,-1,-1,-1,-1,-1,-1,-1,-1,-1,-1,-1,-1,-1,-1,-1,-1,-1,-1,-1],"split_conditions":[1.26E2,3E0,1.14E2,2.0666666E1,5E-1,7.5E1,8E1,3E1,1.26333336E2,2.2833334E1,1.0615E2,1.2E0,3E2,4.6666665E0,5.88E2,1.21166664E2,1E0,1.3E0,7.367884E-1,9.9E1,2.5166666E1,1.83E1,1.5E0,9.78E1,9.83E1,1.6E0,1.6E0,1.2E0,2.0333334E1,9.4E1,1.11E3,1.1E0,9.3E1,7.367884E-1,2.16E1,6.324555E-1,1.8E1,1.2E0,1E0,9.3E1,3.6E1,4E-1,1.17E2,1.01E2,2.53E1,5.4E1,2.4666666E1,1.5454545E0,6.55E1,1.11E3,1.9E0,3.25E0,1.87E1,3.1112698E1,6.12E2,2.108185E0,7.7E1,5.64E2,7.042857E1,1E0,9E-1,2.5E1,1.0053333E2,-2.0479787E-2,1.342152E-2,-4.4689555E-2,-1.0617268E-3,-9.447101E-3,1.1782056E-2,2.2383804E-2,5.733146E-2,1.030172E-2,3.1651884E-2,3.2647487E-2,5.013019E-2,-2.17664E-2,1.2819149E-2,6.25882E-3,3.3262875E-2,-2.2844259E-2,5.5590477E-3,-5.3177435E-2,-3.2728557E-2,-1.8494483E-2,1.6678376E-2,1.1435701E-2,-4.6941605E-3,2.1855345E-2,-5.075111E-3,3.7749138E-2,5.824271E-2,-5.1535722E-2,-1.0649766E-2,-1.2565546E-2,3.0555129E-2,4.291315E-2,1.4568686E-2,-1.0516667E-2,1.2443948E-2,5.7901572E-2,-5.2288543E-2,2.7149057E-2,5.1249225E-2,3.088515E-2,1.1831655E-2,4.2264204E-2,5.6086626E-2,4.413406E-2,-2.7327104E-2,5.994874E-2,7.3264875E-2,-1.4081608E-2,3.5962095E-3,1.82399E-3,2.9797971E-2,-4.7086447E-2,1.92276E-2,-3.923843E-2,2.0241628E-4,-4.6667192E-4,2.9007351E-2,2.122681E-2,4.2681932E-2,2.4074113E-2,4.3053117E-2,6.34792E-2,9.484037E-3],"split_indices":[38,27,5,10,32,1,1,38,5,10,20,32,38,25,38,5,32,30,28,6,10,34,30,21,21,32,32,30,10,1,38,32,1,28,34,28,34,30,32,1,38,36,5,6,34,38,10,25,0,38,32,25,34,18,38,28,2,38,0,30,30,12,20,0,0,0,0,0,0,0,0,0,0,0,0,0,0,0,0,0,0,0,0,0,0,0,0,0,0,0,0,0,0,0,0,0,0,0,0,0,0,0,0,0,0,0,0,0,0,0,0,0,0,0,0,0,0,0,0,0,0,0,0,0,0,0,0],"split_type":[0,0,0,0,0,0,0,0,0,0,0,0,0,0,0,0,0,0,0,0,0,0,0,0,0,0,0,0,0,0,0,0,0,0,0,0,0,0,0,0,0,0,0,0,0,0,0,0,0,0,0,0,0,0,0,0,0,0,0,0,0,0,0,0,0,0,0,0,0,0,0,0,0,0,0,0,0,0,0,0,0,0,0,0,0,0,0,0,0,0,0,0,0,0,0,0,0,0,0,0,0,0,0,0,0,0,0,0,0,0,0,0,0,0,0,0,0,0,0,0,0,0,0,0,0,0,0],"sum_hessian":[1.8410695E5,1.1402746E5,7.007949E4,4.0663062E4,7.33644E4,4.551918E4,2.4560312E4,2.3328162E4,1.73349E4,6.2482285E4,1.0882109E4,1.5328778E4,3.01904E4,1.1576935E4,1.2983378E4,8.306143E3,1.502202E4,1.4983735E4,2.3511655E3,4.9735703E4,1.2746584E4,9.101938E3,1.780171E3,1.3327793E4,2.0009857E3,1.59275625E4,1.4262839E4,8.355471E3,3.2214639E3,1.0486955E4,2.4964224E3,3.2400576E3,5.066085E3,1.1531166E4,3.4908535E3,1.0555604E4,4.428132E3,1.4909216E3,8.602439E2,1.4136071E4,3.5599633E4,6.171082E3,6.5755024E3,7.768025E3,1.3339132E3,1.2958129E3,4.843582E2,2.7051597E3,1.0622634E4,9.254531E2,1.0755326E3,1.3891065E4,2.0364967E3,1.2560702E4,1.7021365E3,7.3167637E3,1.0387072E3,2.0514885E3,1.1699752E3,6.031542E3,4.455413E3,2.0734895E3,4.229328E2,1.8602822E3,1.3797753E3,4.362768E3,7.033166E2,6.378442E3,5.152724E3,3.1188772E3,3.7197635E2,5.4762173E3,5.079386E3,2.2512341E3,2.176898E3,1.2305911E3,2.6033066E2,6.737911E2,1.8645287E2,1.1927423E4,2.2086484E3,1.5828729E4,1.9770902E4,5.6294355E3,5.4164636E2,2.707675E3,3.8678274E3,3.5379475E3,4.230077E3,8.0112384E2,5.3278937E2,9.4304004E2,3.5277286E2,3.7438364E2,1.09974525E2,1.479816E3,1.2253435E3,2.653083E3,7.9695503E3,9.19252E2,6.2010827E0,5.9006903E2,4.8546353E2,1.0470344E4,3.4207222E3,5.8183856E2,1.4546581E3,1.2451515E4,1.09187996E2,1.144056E3,5.5808044E2,3.6385952E3,3.6781685E3,3.0456372E2,7.3414343E2,1.9206542E3,1.3083435E2,2.3664194E2,9.3333325E2,5.0865547E3,9.4498724E2,3.572154E3,8.8325903E2,5.3006195E2,1.5434276E3,4.0600467E2,1.6928131E1],"tree_param":{"num_deleted":"0","num_feature":"40","num_nodes":"127","size_leaf_vector":"1"}},{"base_weights":[-8.4227044E-4,-3.193695E-1,3.2734358E-1,-4.7749162E-1,1.5984648E-1,4.9046534E-1,-5.898505E-3,-6.235711E-1,-1.0460588E-1,-1.4629984E-1,4.6270847E-1,4.1565242E-1,9.890841E-1,-4.037144E-1,2.0988174E-1,-4.6940604E-1,-9.45161E-1,2.9042977E-1,-2.3869294E-1,-4.5061368E-1,2.2983639E-1,5.745963E-1,2.0636251E-2,2.4588537E-1,6.3897806E-1,8.811002E-1,1.173191E0,-1.8444806E-1,-8.1030095E-1,9.291057E-2,7.2434217E-1,-1.7387019E-1,-6.384995E-1,-7.297569E-1,-1.0782228E0,3.9967212E-1,-1.5843071E-1,-4.085883E-1,-5.5658077E-3,1.2507468E-1,-8.819989E-1,1.4875296E-1,1.0559428E0,4.760052E-1,1.0010144E0,-2.1812671E-1,5.0361E-1,3.7379205E-1,-6.910646E-2,-2.3507904E-1,6.848561E-1,7.2573894E-1,1.0139819E0,9.850111E-1,1.233152E0,-6.7681156E-2,-4.132049E-1,-9.9307793E-1,-3.836232E-1,-1.859167E-2,5.0062543E-1,6.455281E-1,1.1909523E0,-2.5722727E-2,4.8502395E-4,5.32382E-4,-3.5312146E-2,-4.4400584E-2,-2.3544779E-2,-6.0329467E-2,-4.389475E-2,2.6840419E-2,5.0470745E-3,-5.146618E-2,-5.577687E-3,-7.3326603E-3,-2.8918115E-2,5.6150723E-3,-1.5141556E-2,7.2408334E-4,3.7665766E-2,-5.246299E-2,-1.3073578E-2,1.4811347E-2,-1.3328294E-2,5.3769346E-2,-8.0369405E-2,2.8063891E-2,-2.6278228E-3,4.2996805E-2,6.1992444E-2,-1.8150281E-2,2.1710154E-2,1.0847944E-2,3.8574602E-2,1.5996752E-2,4.5989778E-2,-1.4692306E-2,7.8501925E-3,-4.9787858E-3,-8.257799E-2,2.9921383E-2,4.729117E-2,4.224908E-2,1.9741792E-2,1.1615363E-2,5.1979013E-2,5.5236008E-2,2.6061926E-2,5.130158E-2,6.364473E-2,-5.4193786E-3,2.5078708E-2,-3.3618294E-2,-4.3559773E-3,1.1526001E-2,-5.2237313E-2,-2.6570207E-2,7.980421E-3,-3.2630737E-3,4.2790588E-2,1.6085634E-2,3.5609346E-2,2.6607517E-2,4.623379E-2,6.1633714E-2,5.7931463E-3],"categories":[],"categories_nodes":[],"categories_segments":[],"categories_sizes":[],"default_left":[0,1,1,1,1,1,1,1,0,0,0,0,0,1,0,0,1,1,0,0,1,1,0,1,1,0,0,1,1,0,0,0,0,0,1,1,0,0,0,1,1,0,0,1,0,0,0,1,1,0,1,0,1,0,0,1,1,0,0,1,0,0,0,0,0,0,0,0,0,0,0,0,0,0,0,0,0,0,0,0,0,0,0,0,0,0,0,0,0,0,0,0,0,0,0,0,0,0,0,0,0,0,0,0,0,0,0,0,0,0,0,0,0,0,0,0,0,0,0,0,0,0,0,0,0,0,0],"id":10,"left_children":[1,3,5,7,9,11,13,15,17,19,21,23,25,27,29,31,33,35,37,39,41,43,45,47,49,51,53,55,57,59,61,63,65,67,69,71,73,75,77,79,81,83,85,87,89,91,93,95,97,99,101,103,105,107,109,111,113,115,117,119,121,123,125,-1,-1,-1,-1,-1,-1,-1,-1,-1,-1,-1,-1,-1,-1,-1,-1,-1,-1,-1,-1,-1,-1,-1,-1,-1,-1,-1,-1,-1,-1,-1,-1,-1,-1,-1,-1,-1,-1,-1,-1,-1,-1,-1,-1,-1,-1,-1,-1,-1,-1,-1,-1,-1,-1,-1,-1,-1,-1,-1,-1,-1,-1,-1,-1],"loss_changes":[1.9146525E4,7.043044E3,4.9037764E3,3.8067324E3,2.1382388E3,2.258834E3,2.5450308E3,2.4890957E3,1.0421359E3,1.312865E3,5.7339087E2,1.9965361E3,1.5604004E2,9.2935815E2,1.1566572E3,1.6962266E3,4.6556543E2,2.4454398E2,5.817563E2,1.5746139E3,3.4345517E2,3.884519E2,2.7023853E2,1.2055592E3,9.121924E2,1.0215625E2,3.1709229E1,1.8093333E2,2.8446802E2,7.1203674E2,1.3017712E2,7.7245703E2,9.494756E2,2.5422974E2,2.575254E2,1.6423236E2,3.97566E1,3.7774475E2,2.1701872E2,1.8873988E2,3.7589893E2,2.8626175E2,2.5463654E1,3.3878064E2,5.743933E1,1.4837207E2,5.9362488E1,6.254873E2,4.3920148E2,2.1768614E2,4.8684766E2,9.046484E1,5.346045E1,3.884442E1,1.6875732E1,1.0401616E2,1.9340417E2,1.6186572E2,8.8153534E1,5.019892E2,1.2708423E2,9.598547E1,2.2882935E1,0E0,0E0,0E0,0E0,0E0,0E0,0E0,0E0,0E0,0E0,0E0,0E0,0E0,0E0,0E0,0E0,0E0,0E0,0E0,0E0,0E0,0E0,0E0,0E0,0E0,0E0,0E0,0E0,0E0,0E0,0E0,0E0,0E0,0E0,0E0,0E0,0E0,0E0,0E0,0E0,0E0,0E0,0E0,0E0,0E0,0E0,0E0,0E0,0E0,0E0,0E0,0E0,0E0,0E0,0E0,0E0,0E0,0E0,0E0,0E0,0E0,0E0,0E0,0E0],"parents":[2147483647,0,0,1,1,2,2,3,3,4,4,5,5,6,6,7,7,8,8,9,9,10,10,11,11,12,12,13,13,14,14,15,15,16,16,17,17,18,18,19,19,20,20,21,21,22,22,23,23,24,24,25,25,26,26,27,27,28,28,29,29,30,30,31,31,32,32,33,33,34,34,35,35,36,36,37,37,38,38,39,39,40,40,41,41,42,42,43,43,44,44,45,45,46,46,47,47,48,48,49,49,50,50,51,51,52,52,53,53,54,54,55,55,56,56,57,57,58,58,59,59,60,60,61,61,62,62],"right_children":[2,4,6,8,10,12,14,16,18,20,22,24,26,28,30,32,34,36,38,40,42,44,46,48,50,52,54,56,58,60,62,64,66,68,70,72,74,76,78,80,82,84,86,88,90,92,94,96,98,100,102,104,106,108,110,112,114,116,118,120,122,124,126,-1,-1,-1,-1,-1,-1,-1,-1,-1,-1,-1,-1,-1,-1,-1,-1,-1,-1,-1,-1,-1,-1,-1,-1,-1,-1,-1,-1,-1,-1,-1,-1,-1,-1,-1,-1,-1,-1,-1,-1,-1,-1,-1,-1,-1,-1,-1,-1,-1,-1,-1,-1,-1,-1,-1,-1,-1,-1,-1,-1,-1,-1,-1,-1],"split_conditions":[8.4E1,5E-1,1.04E2,2.1666666E1,1.9833334E1,1.4E0,7.4E1,1.1E2,1.0666667E0,2.4E1,1.0615E2,2.46E2,2.76E2,4.6E0,5.04E2,5E0,4.071429E0,1.09E2,2.4833334E1,1.09E2,2.1E1,1.83E1,3.6E0,3.1666667E0,5.7E1,2E0,1.7E0,1.1666666E0,2.0166666E1,9.85E1,1.11E3,3E1,8.22E1,4.8E1,7.7E1,9.8125E1,1.2E1,1.03E2,1.23E2,1.87E1,2E-1,1.0615E2,1.69E2,1.13E2,2.73E1,2.5E1,2.4E1,1.58E1,8.6666664E1,9.72E2,2.6E1,1.03E2,8E0,1.007E2,1.42E1,3E-1,1.9833334E1,9.7E1,2.88E2,1.1E0,2.16E2,9.8E1,1.0086667E2,-2.5722727E-2,4.8502395E-4,5.32382E-4,-3.5312146E-2,-4.4400584E-2,-2.3544779E-2,-6.0329467E-2,-4.389475E-2,2.6840419E-2,5.0470745E-3,-5.146618E-2,-5.577687E-3,-7.3326603E-3,-2.8918115E-2,5.6150723E-3,-1.5141556E-2,7.2408334E-4,3.7665766E-2,-5.246299E-2,-1.3073578E-2,1.4811347E-2,-1.3328294E-2,5.3769346E-2,-8.0369405E-2,2.8063891E-2,-2.6278228E-3,4.2996805E-2,6.1992444E-2,-1.8150281E-2,2.1710154E-2,1.0847944E-2,3.8574602E-2,1.5996752E-2,4.5989778E-2,-1.4692306E-2,7.8501925E-3,-4.9787858E-3,-8.257799E-2,2.9921383E-2,4.729117E-2,4.224908E-2,1.9741792E-2,1.1615363E-2,5.1979013E-2,5.5236008E-2,2.6061926E-2,5.130158E-2,6.364473E-2,-5.4193786E-3,2.5078708E-2,-3.3618294E-2,-4.3559773E-3,1.1526001E-2,-5.2237313E-2,-2.6570207E-2,7.980421E-3,-3.2630737E-3,4.2790588E-2,1.6085634E-2,3.5609346E-2,2.6607517E-2,4.623379E-2,6.1633714E-2,5.7931463E-3],"split_indices":[38,32,6,10,10,32,1,6,25,38,20,38,38,25,38,27,25,6,10,6,34,34,32,25,1,32,32,25,10,1,38,38,36,38,1,15,38,6,6,34,36,20,2,6,34,11,38,34,0,38,10,22,11,20,34,36,10,21,38,32,38,1,20,0,0,0,0,0,0,0,0,0,0,0,0,0,0,0,0,0,0,0,0,0,0,0,0,0,0,0,0,0,0,0,0,0,0,0,0,0,0,0,0,0,0,0,0,0,0,0,0,0,0,0,0,0,0,0,0,0,0,0,0,0,0,0,0],"split_type":[0,0,0,0,0,0,0,0,0,0,0,0,0,0,0,0,0,0,0,0,0,0,0,0,0,0,0,0,0,0,0,0,0,0,0,0,0,0,0,0,0,0,0,0,0,0,0,0,0,0,0,0,0,0,0,0,0,0,0,0,0,0,0,0,0,0,0,0,0,0,0,0,0,0,0,0,0,0,0,0,0,0,0,0,0,0,0,0,0,0,0,0,0,0,0,0,0,0,0,0,0,0,0,0,0,0,0,0,0,0,0,0,0,0,0,0,0,0,0,0,0,0,0,0,0,0,0],"sum_hessian":[1.8315503E5,9.2945234E4,9.02098E4,6.9885734E4,2.3059494E4,6.056352E4,2.9646273E4,5.021366E4,1.9672078E4,1.1467825E4,1.159167E4,5.2663676E4,7.8998438E3,1.0425249E4,1.9221025E4,3.3943938E4,1.6269722E4,4.984883E3,1.4687195E4,6.3390254E3,5.1288003E3,9.250166E3,2.3415032E3,2.9920729E4,2.274295E4,4.982972E3,2.9168713E3,6.7737275E3,3.651521E3,1.5661339E4,3.5596863E3,1.2354023E4,2.1589914E4,6.2150728E3,1.0054648E4,4.009236E3,9.756467E2,8.495328E3,6.1918667E3,2.7156584E3,3.6233667E3,4.671469E3,4.5733084E2,7.5148027E3,1.7353638E3,1.5672605E3,7.742427E2,2.127965E4,8.641077E3,1.1340061E3,2.1608943E4,2.300159E3,2.6828135E3,7.09047E2,2.2078242E3,4.48546E3,2.2882676E3,2.5554915E3,1.0960294E3,1.2298805E4,3.3625344E3,3.0473489E3,5.1233734E2,4.3260205E3,8.0280024E3,2.0402426E3,1.9549672E4,3.855552E3,2.3595208E3,6.1248965E3,3.929752E3,2.747269E3,1.2619672E3,4.8762672E1,9.2688403E2,3.3416074E3,5.153721E3,4.4342754E3,1.7575912E3,2.3100325E3,4.0562607E2,2.8535195E3,7.698471E2,3.447571E3,1.2238982E3,4.5460815E2,2.7227144E0,6.470808E3,1.0439948E3,1.0938395E3,6.415243E2,1.2828009E3,2.844596E2,3.7489282E2,3.9934985E2,1.9370553E4,1.9090988E3,4.3335234E3,4.3075537E3,1.0359731E3,9.8032936E1,1.6235339E4,5.373604E3,1.6897097E3,6.104492E2,8.53903E1,2.597423E3,5.62478E2,1.46569E2,3.5975568E2,1.8480686E3,4.1868735E3,2.9858615E2,1.2743768E3,1.0138908E3,1.03397484E2,2.452094E3,8.616482E2,2.343813E2,1.1676516E4,6.22289E2,1.8232087E3,1.5393257E3,2.169214E3,8.7813495E2,4.9305624E2,1.9281078E1],"tree_param":{"num_deleted":"0","num_feature":"40","num_nodes":"127","size_leaf_vector":"1"}},{"base_weights":[1.2488972E-3,2.2029065E-1,-4.0009812E-1,7.185352E-2,5.6562346E-1,-6.375183E-1,-8.9726515E-2,-2.3527147E-2,4.7860935E-1,6.758406E-1,2.327568E-1,-2.1081498E-1,-7.5221086E-1,-2.3875017E-1,2.6409513E-1,-1.7323054E-1,2.3803073E-1,2.2622533E-1,6.563891E-1,5.9246695E-1,9.0744096E-1,1.5284006E-1,6.5600246E-1,-2.9441613E-1,3.704049E-1,-8.979322E-1,-4.2327458E-1,-2.87309E-1,6.4613444E-1,9.7055495E-2,4.416114E-1,-7.489646E-2,-4.908784E-1,3.609274E-1,-7.172935E-2,4.7808343E-1,3.0118937E-2,5.5853474E-1,9.690307E-1,4.822616E-1,7.8968483E-1,7.759824E-1,1.0031922E0,1.935277E-2,3.4764278E-1,4.445189E-1,8.3997315E-1,-3.2602507E-1,7.206879E-1,2.858158E-1,9.7361475E-1,-9.602378E-1,-3.0634782E-1,-5.151696E-1,-6.72769E-2,-6.7843236E-2,-4.7195768E-1,7.017709E-1,-4.6322682E-1,2.1755293E-1,-1.567662E-1,3.9493966E-1,9.0526617E-1,-1.7828906E-2,9.3928253E-4,-1.5456922E-2,-3.239743E-2,2.4273282E-2,7.0770406E-3,-7.865473E-3,1.5407703E-2,1.3370949E-2,3.0085076E-2,1.1002362E-2,-1.4425597E-2,3.1703517E-2,1.120699E-2,2.7217383E-2,5.3755283E-2,1.5357657E-2,3.0553907E-2,4.5301653E-2,3.2887917E-2,4.7477677E-2,2.9454513E-2,5.2683424E-2,4.092422E-2,-6.010218E-4,2.8143743E-2,2.4434945E-2,9.391407E-3,1.1453577E-2,4.7341075E-2,1.9988932E-2,4.5004215E-2,-7.2160116E-3,-2.3790617E-2,8.989337E-3,5.166928E-2,6.8607936E-3,3.0126968E-2,5.2268524E-2,-5.744138E-2,-5.458879E-2,-3.931996E-2,-2.0463392E-2,4.045589E-2,-2.767075E-2,2.382789E-2,-5.9832376E-3,2.1083757E-2,-5.946545E-3,2.7708236E-2,-2.773687E-2,-6.2884664E-4,4.773922E-2,2.5226166E-2,-3.978274E-2,5.9461404E-2,6.9212667E-3,3.4929857E-2,-1.2125201E-2,2.1776771E-2,1.6246038E-2,3.384088E-2,-1.598173E-2,4.6966728E-2],"categories":[],"categories_nodes":[],"categories_segments":[],"categories_sizes":[],"default_left":[1,1,1,1,1,0,1,1,0,1,1,1,1,1,0,1,1,0,1,0,0,1,0,1,1,1,0,0,0,1,1,0,0,0,0,1,0,0,1,1,0,0,0,1,0,1,0,0,1,0,0,1,1,1,1,1,0,0,1,1,0,0,0,0,0,0,0,0,0,0,0,0,0,0,0,0,0,0,0,0,0,0,0,0,0,0,0,0,0,0,0,0,0,0,0,0,0,0,0,0,0,0,0,0,0,0,0,0,0,0,0,0,0,0,0,0,0,0,0,0,0,0,0,0,0,0,0],"id":11,"left_children":[1,3,5,7,9,11,13,15,17,19,21,23,25,27,29,31,33,35,37,39,41,43,45,47,49,51,53,55,57,59,61,63,65,67,69,71,73,75,77,79,81,83,85,87,89,91,93,95,97,99,101,103,105,107,109,111,113,115,117,119,121,123,125,-1,-1,-1,-1,-1,-1,-1,-1,-1,-1,-1,-1,-1,-1,-1,-1,-1,-1,-1,-1,-1,-1,-1,-1,-1,-1,-1,-1,-1,-1,-1,-1,-1,-1,-1,-1,-1,-1,-1,-1,-1,-1,-1,-1,-1,-1,-1,-1,-1,-1,-1,-1,-1,-1,-1,-1,-1,-1,-1,-1,-1,-1,-1,-1],"loss_changes":[1.6040143E4,6.050549E3,4.746994E3,3.202818E3,1.3016709E3,1.786124E3,1.4723217E3,2.618551E3,7.034429E2,5.1418945E2,2.985082E2,3.758942E2,1.3785078E3,8.444159E2,2.4534204E2,1.3284606E3,9.267313E2,3.2015134E2,2.809126E2,4.2569434E2,8.801514E1,1.9313113E2,5.4168823E1,2.1719452E2,4.9366653E1,7.3447266E2,2.8894604E2,7.547716E2,6.342801E1,1.3047261E2,8.645215E1,8.5707043E2,2.867964E2,4.7611548E2,2.2487543E2,7.3737976E1,2.2068312E2,1.7689941E2,9.814697E1,2.8354834E2,1.0724902E2,9.601868E1,3.7158203E1,7.517776E1,6.798749E1,7.0590515E1,1.9447937E1,1.7842719E2,3.440377E1,4.0144356E1,1.9361397E1,4.115293E2,2.1856396E2,2.665598E2,4.6504143E1,2.7054535E2,3.8464917E2,4.8125244E1,2.809835E1,1.09996826E2,6.985398E1,7.175049E1,1.55780945E1,0E0,0E0,0E0,0E0,0E0,0E0,0E0,0E0,0E0,0E0,0E0,0E0,0E0,0E0,0E0,0E0,0E0,0E0,0E0,0E0,0E0,0E0,0E0,0E0,0E0,0E0,0E0,0E0,0E0,0E0,0E0,0E0,0E0,0E0,0E0,0E0,0E0,0E0,0E0,0E0,0E0,0E0,0E0,0E0,0E0,0E0,0E0,0E0,0E0,0E0,0E0,0E0,0E0,0E0,0E0,0E0,0E0,0E0,0E0,0E0,0E0,0E0,0E0,0E0],"parents":[2147483647,0,0,1,1,2,2,3,3,4,4,5,5,6,6,7,7,8,8,9,9,10,10,11,11,12,12,13,13,14,14,15,15,16,16,17,17,18,18,19,19,20,20,21,21,22,22,23,23,24,24,25,25,26,26,27,27,28,28,29,29,30,30,31,31,32,32,33,33,34,34,35,35,36,36,37,37,38,38,39,39,40,40,41,41,42,42,43,43,44,44,45,45,46,46,47,47,48,48,49,49,50,50,51,51,52,52,53,53,54,54,55,55,56,56,57,57,58,58,59,59,60,60,61,61,62,62],"right_children":[2,4,6,8,10,12,14,16,18,20,22,24,26,28,30,32,34,36,38,40,42,44,46,48,50,52,54,56,58,60,62,64,66,68,70,72,74,76,78,80,82,84,86,88,90,92,94,96,98,100,102,104,106,108,110,112,114,116,118,120,122,124,126,-1,-1,-1,-1,-1,-1,-1,-1,-1,-1,-1,-1,-1,-1,-1,-1,-1,-1,-1,-1,-1,-1,-1,-1,-1,-1,-1,-1,-1,-1,-1,-1,-1,-1,-1,-1,-1,-1,-1,-1,-1,-1,-1,-1,-1,-1,-1,-1,-1,-1,-1,-1,-1,-1,-1,-1,-1,-1,-1,-1,-1,-1,-1,-1],"split_conditions":[5E0,2.35E1,8.1E1,1.3E0,1.19166664E2,9.5E1,2.35E1,8.3E1,1.35E1,1.3E0,1.2E0,1E0,2.0166666E1,1.92E1,2.65E1,1.11E2,1.18333336E2,8.22E1,2.05E1,2.8E1,1.72E1,9E1,1.59E1,1.8E0,1.98E1,1.4E0,2.5166666E1,1.07E2,1.013E2,1.224E2,1.7E0,1.61E1,1.0666667E0,9.93E1,1.022E2,1.7166666E1,1.0666667E0,1.0615E2,9.59E1,8.1E1,9.93E1,2.46E1,2.1230002E2,1.3E0,1.3533333E2,6E-1,8.2E1,9.8E1,7.4E0,2.3E0,9.92E1,6.9E1,1.9E1,1.1E0,1E0,1.8E0,1.022E2,3.99E1,1.6E0,3E-1,1.1E2,1.1E2,3E1,-1.7828906E-2,9.3928253E-4,-1.5456922E-2,-3.239743E-2,2.4273282E-2,7.0770406E-3,-7.865473E-3,1.5407703E-2,1.3370949E-2,3.0085076E-2,1.1002362E-2,-1.4425597E-2,3.1703517E-2,1.120699E-2,2.7217383E-2,5.3755283E-2,1.5357657E-2,3.0553907E-2,4.5301653E-2,3.2887917E-2,4.7477677E-2,2.9454513E-2,5.2683424E-2,4.092422E-2,-6.010218E-4,2.8143743E-2,2.4434945E-2,9.391407E-3,1.1453577E-2,4.7341075E-2,1.9988932E-2,4.5004215E-2,-7.2160116E-3,-2.3790617E-2,8.989337E-3,5.166928E-2,6.8607936E-3,3.0126968E-2,5.2268524E-2,-5.744138E-2,-5.458879E-2,-3.931996E-2,-2.0463392E-2,4.045589E-2,-2.767075E-2,2.382789E-2,-5.9832376E-3,2.1083757E-2,-5.946545E-3,2.7708236E-2,-2.773687E-2,-6.2884664E-4,4.773922E-2,2.5226166E-2,-3.978274E-2,5.9461404E-2,6.9212667E-3,3.4929857E-2,-1.2125201E-2,2.1776771E-2,1.6246038E-2,3.384088E-2,-1.598173E-2,4.6966728E-2],"split_indices":[27,10,1,30,5,6,10,1,34,30,30,32,10,34,10,6,5,36,34,10,34,1,34,36,34,30,10,6,21,5,30,34,25,21,1,10,25,20,20,1,20,36,20,32,5,36,2,21,34,32,21,1,34,36,32,32,1,36,36,36,1,1,12,0,0,0,0,0,0,0,0,0,0,0,0,0,0,0,0,0,0,0,0,0,0,0,0,0,0,0,0,0,0,0,0,0,0,0,0,0,0,0,0,0,0,0,0,0,0,0,0,0,0,0,0,0,0,0,0,0,0,0,0,0,0,0,0],"split_type":[0,0,0,0,0,0,0,0,0,0,0,0,0,0,0,0,0,0,0,0,0,0,0,0,0,0,0,0,0,0,0,0,0,0,0,0,0,0,0,0,0,0,0,0,0,0,0,0,0,0,0,0,0,0,0,0,0,0,0,0,0,0,0,0,0,0,0,0,0,0,0,0,0,0,0,0,0,0,0,0,0,0,0,0,0,0,0,0,0,0,0,0,0,0,0,0,0,0,0,0,0,0,0,0,0,0,0,0,0,0,0,0,0,0,0,0,0,0,0,0,0,0,0,0,0,0,0],"sum_hessian":[1.8245531E5,1.1803578E5,6.4419523E4,8.255271E4,3.5483074E4,3.6498656E4,2.7920867E4,6.687261E4,1.5680097E4,2.6655879E4,8.827195E3,7.7326934E3,2.876596E4,1.9646445E4,8.274423E3,4.25305E4,2.4342113E4,6.4812705E3,9.198826E3,1.960268E4,7.0532007E3,7.4263267E3,1.400869E3,6.7607397E3,9.719537E2,1.9933523E4,8.8324375E3,1.8625055E4,1.02139105E3,4.263805E3,4.010618E3,3.2477646E4,1.0052852E4,1.7427588E4,6.914525E3,2.8366904E3,3.64458E3,7.008124E3,2.1907021E3,1.2577703E4,7.024976E3,2.9762104E3,4.0769902E3,4.407331E3,3.0189956E3,6.5329266E2,7.4757635E2,6.5572354E3,2.0350436E2,8.537103E2,1.1824335E2,1.8033604E4,1.8999207E3,7.0199136E3,1.8125243E3,8.510816E3,1.0114237E4,9.7296265E2,4.8428432E1,2.8913364E3,1.3724689E3,3.6455107E3,3.6510733E2,8.104969E3,2.4372678E4,4.6618135E3,5.391038E3,1.111613E4,6.311458E3,5.6436987E3,1.2708263E3,1.0501814E3,1.7865092E3,2.2836562E3,1.360924E3,5.716045E3,1.292079E3,4.390495E2,1.7516527E3,5.3324077E3,7.245295E3,3.7297646E3,3.2952112E3,1.5409824E3,1.4352279E3,3.1982712E3,8.787192E2,4.167739E3,2.395925E2,1.6025181E3,1.4164775E3,4.5821243E2,1.950802E2,9.0739685E1,6.568367E2,2.9638245E3,3.593411E3,7.512643E1,1.2837794E2,5.8205554E2,2.716548E2,1.1486737E2,3.3759768E0,1.0262799E4,7.7708037E3,1.7400093E3,1.5991136E2,6.759673E3,2.6024084E2,1.6378005E3,1.7472379E2,7.8655967E3,6.4522E2,8.56977E3,1.5444673E3,4.2454706E2,5.484155E2,4.0749306E1,7.6791253E0,2.484024E3,4.0731262E2,1.1994366E3,1.7303218E2,2.9218672E3,7.2364343E2,9.653193E0,3.5545413E2],"tree_param":{"num_deleted":"0","num_feature":"40","num_nodes":"127","size_leaf_vector":"1"}},{"base_weights":[-2.0913577E-3,-2.3771428E-1,3.8281572E-1,3.9107163E-2,-4.7612622E-1,5.353435E-1,1.0251702E-1,1.5861033E-1,-4.0798572E-1,-6.152414E-1,-1.0689209E-1,2.5888062E-1,6.545698E-1,-2.3257941E-1,2.7747244E-1,-2.6759174E-2,4.5513493E-1,-5.553216E-1,-1.14827625E-1,-6.5803635E-1,4.965879E-1,-2.0347165E-1,4.2670122E-1,6.8000895E-1,1.3935025E-1,5.3602856E-1,8.7915725E-1,-6.399189E-2,-6.390786E-1,1.7268479E-1,7.542519E-1,-5.395516E-1,1.0564109E-1,3.2655022E-1,7.2871983E-1,-6.091673E-1,1.2379177E-1,-2.152958E-1,3.3495283E-1,-3.049701E-1,-7.7241665E-1,2.4471748E-1,9.9341357E-1,-2.6885062E-1,3.1520933E-1,3.2253742E-1,9.6208966E-1,7.785494E-1,2.1821915E-1,7.0067596E-1,6.537819E-2,4.7899053E-1,9.491209E-1,8.336792E-1,1.2194525E0,-9.966628E-2,5.2245504E-1,-8.243955E-1,-1.7864707E-1,6.0259897E-2,4.561275E-1,6.776142E-1,1.1264397E0,-1.5813777E-3,-4.5989748E-2,2.5310775E-3,4.0463638E-2,1.1359233E-2,3.0656073E-2,4.3634854E-2,1.7354814E-2,-4.097166E-2,-2.2668805E-2,-4.484571E-3,3.2824602E-2,-2.115446E-2,-4.607554E-3,2.3371935E-2,-2.1049032E-2,-1.9348923E-2,7.929518E-3,-4.239058E-2,-1.7488653E-2,2.1001546E-2,-4.5325067E-3,5.502456E-2,2.988396E-2,-2.095212E-2,-1.957202E-3,7.2011435E-3,4.2339154E-2,1.0876373E-2,4.2467136E-2,1.2933442E-2,5.080011E-2,3.3733524E-2,5.4613616E-2,3.2566134E-2,-3.903564E-3,2.843456E-2,5.1635653E-2,3.5584092E-4,3.620165E-2,2.1218332E-2,3.8749855E-2,3.6355864E-2,4.9783815E-2,4.238247E-2,-2.3660783E-2,5.3831436E-2,6.646028E-2,-7.4692243E-3,1.5128939E-2,1.7827759E-2,5.686612E-2,-4.32716E-2,4.0245425E-2,-1.2231355E-2,5.6445796E-2,3.527055E-4,3.4095086E-2,2.8884081E-2,1.1591861E-2,1.7409572E-2,3.8990185E-2,5.9493292E-2,9.449084E-3],"categories":[],"categories_nodes":[],"categories_segments":[],"categories_sizes":[],"default_left":[0,0,1,1,1,1,1,1,1,1,1,0,0,1,0,0,1,1,1,0,1,1,1,1,0,1,1,1,1,0,0,0,1,0,0,0,0,0,0,1,0,0,0,0,0,1,0,1,0,1,1,1,0,0,0,0,1,0,0,1,0,0,1,0,0,0,0,0,0,0,0,0,0,0,0,0,0,0,0,0,0,0,0,0,0,0,0,0,0,0,0,0,0,0,0,0,0,0,0,0,0,0,0,0,0,0,0,0,0,0,0,0,0,0,0,0,0,0,0,0,0,0,0,0,0,0,0],"id":12,"left_children":[1,3,5,7,9,11,13,15,17,19,21,23,25,27,29,31,33,35,37,39,41,43,45,47,49,51,53,55,57,59,61,63,65,67,69,71,73,75,77,79,81,83,85,87,89,91,93,95,97,99,101,103,105,107,109,111,113,115,117,119,121,123,125,-1,-1,-1,-1,-1,-1,-1,-1,-1,-1,-1,-1,-1,-1,-1,-1,-1,-1,-1,-1,-1,-1,-1,-1,-1,-1,-1,-1,-1,-1,-1,-1,-1,-1,-1,-1,-1,-1,-1,-1,-1,-1,-1,-1,-1,-1,-1,-1,-1,-1,-1,-1,-1,-1,-1,-1,-1,-1,-1,-1,-1,-1,-1,-1],"loss_changes":[1.6482904E4,7.440159E3,2.950374E3,2.7872275E3,3.111121E3,1.4729199E3,1.4259004E3,2.2626548E3,4.7517566E2,2.0935605E3,8.543452E2,6.778337E2,8.3081055E2,5.7169946E2,7.98173E2,1.7198364E3,5.5680225E2,2.6783276E2,1.6643198E2,1.7105547E3,2.0387057E2,4.7608118E2,1.413865E2,1.3530762E2,4.3558362E2,4.8114697E2,1.6590039E2,1.234498E2,2.0852557E2,4.174457E2,8.1349365E1,1.0039293E3,7.793848E2,3.0664233E2,2.778252E2,2.2187427E2,6.1327305E1,7.697975E1,6.755564E1,3.941936E2,1.0192832E3,6.3755424E1,2.2580627E1,4.3006104E2,1.4290115E2,1.17563644E2,1.541156E1,7.921216E1,6.7416626E1,5.294287E1,3.5575912E2,2.9009912E2,2.4895752E1,1.7416211E2,1.8466187E1,1.1125608E2,3.411177E1,1.1726782E2,6.093612E1,3.1028583E2,1.0129828E2,8.0174805E1,2.8912842E1,0E0,0E0,0E0,0E0,0E0,0E0,0E0,0E0,0E0,0E0,0E0,0E0,0E0,0E0,0E0,0E0,0E0,0E0,0E0,0E0,0E0,0E0,0E0,0E0,0E0,0E0,0E0,0E0,0E0,0E0,0E0,0E0,0E0,0E0,0E0,0E0,0E0,0E0,0E0,0E0,0E0,0E0,0E0,0E0,0E0,0E0,0E0,0E0,0E0,0E0,0E0,0E0,0E0,0E0,0E0,0E0,0E0,0E0,0E0,0E0,0E0,0E0,0E0,0E0],"parents":[2147483647,0,0,1,1,2,2,3,3,4,4,5,5,6,6,7,7,8,8,9,9,10,10,11,11,12,12,13,13,14,14,15,15,16,16,17,17,18,18,19,19,20,20,21,21,22,22,23,23,24,24,25,25,26,26,